<?xml version="1.0" encoding="UTF-8" standalone="yes"?>
<PMML xmlns="http://www.dmg.org/PMML-4_3" version="4.3">
	<Header>
		<Application name="JPMML-SkLearn" version="1.4.4"/>
		<Timestamp>2018-01-05T09:54:21Z</Timestamp>
	</Header>
	<MiningBuildTask>
		<Extension>PMMLPipeline(steps=[('classifier', DecisionTreeClassifier(class_weight=None, criterion='gini', max_depth=None,
            max_features=None, max_leaf_nodes=None,
            min_impurity_split=1e-07, min_samples_leaf=1,
            min_samples_split=2, min_weight_fraction_leaf=0.0,
            presort=False, random_state=None, splitter='best'))])</Extension>
	</MiningBuildTask>
	<DataDictionary>
		<DataField name="label" optype="categorical" dataType="integer">
			<Value value="0"/>
			<Value value="1"/>
			<Value value="2"/>
			<Value value="3"/>
			<Value value="4"/>
			<Value value="5"/>
			<Value value="6"/>
			<Value value="7"/>
			<Value value="8"/>
			<Value value="9"/>
		</DataField>
		<DataField name="pixel100" optype="continuous" dataType="float"/>
		<DataField name="pixel101" optype="continuous" dataType="float"/>
		<DataField name="pixel103" optype="continuous" dataType="float"/>
		<DataField name="pixel104" optype="continuous" dataType="float"/>
		<DataField name="pixel106" optype="continuous" dataType="float"/>
		<DataField name="pixel107" optype="continuous" dataType="float"/>
		<DataField name="pixel119" optype="continuous" dataType="float"/>
		<DataField name="pixel120" optype="continuous" dataType="float"/>
		<DataField name="pixel121" optype="continuous" dataType="float"/>
		<DataField name="pixel122" optype="continuous" dataType="float"/>
		<DataField name="pixel123" optype="continuous" dataType="float"/>
		<DataField name="pixel124" optype="continuous" dataType="float"/>
		<DataField name="pixel125" optype="continuous" dataType="float"/>
		<DataField name="pixel126" optype="continuous" dataType="float"/>
		<DataField name="pixel127" optype="continuous" dataType="float"/>
		<DataField name="pixel128" optype="continuous" dataType="float"/>
		<DataField name="pixel129" optype="continuous" dataType="float"/>
		<DataField name="pixel130" optype="continuous" dataType="float"/>
		<DataField name="pixel131" optype="continuous" dataType="float"/>
		<DataField name="pixel132" optype="continuous" dataType="float"/>
		<DataField name="pixel133" optype="continuous" dataType="float"/>
		<DataField name="pixel135" optype="continuous" dataType="float"/>
		<DataField name="pixel146" optype="continuous" dataType="float"/>
		<DataField name="pixel147" optype="continuous" dataType="float"/>
		<DataField name="pixel148" optype="continuous" dataType="float"/>
		<DataField name="pixel149" optype="continuous" dataType="float"/>
		<DataField name="pixel150" optype="continuous" dataType="float"/>
		<DataField name="pixel151" optype="continuous" dataType="float"/>
		<DataField name="pixel152" optype="continuous" dataType="float"/>
		<DataField name="pixel153" optype="continuous" dataType="float"/>
		<DataField name="pixel154" optype="continuous" dataType="float"/>
		<DataField name="pixel155" optype="continuous" dataType="float"/>
		<DataField name="pixel156" optype="continuous" dataType="float"/>
		<DataField name="pixel157" optype="continuous" dataType="float"/>
		<DataField name="pixel158" optype="continuous" dataType="float"/>
		<DataField name="pixel159" optype="continuous" dataType="float"/>
		<DataField name="pixel160" optype="continuous" dataType="float"/>
		<DataField name="pixel161" optype="continuous" dataType="float"/>
		<DataField name="pixel162" optype="continuous" dataType="float"/>
		<DataField name="pixel163" optype="continuous" dataType="float"/>
		<DataField name="pixel165" optype="continuous" dataType="float"/>
		<DataField name="pixel172" optype="continuous" dataType="float"/>
		<DataField name="pixel174" optype="continuous" dataType="float"/>
		<DataField name="pixel175" optype="continuous" dataType="float"/>
		<DataField name="pixel176" optype="continuous" dataType="float"/>
		<DataField name="pixel177" optype="continuous" dataType="float"/>
		<DataField name="pixel178" optype="continuous" dataType="float"/>
		<DataField name="pixel179" optype="continuous" dataType="float"/>
		<DataField name="pixel180" optype="continuous" dataType="float"/>
		<DataField name="pixel181" optype="continuous" dataType="float"/>
		<DataField name="pixel182" optype="continuous" dataType="float"/>
		<DataField name="pixel183" optype="continuous" dataType="float"/>
		<DataField name="pixel184" optype="continuous" dataType="float"/>
		<DataField name="pixel185" optype="continuous" dataType="float"/>
		<DataField name="pixel186" optype="continuous" dataType="float"/>
		<DataField name="pixel187" optype="continuous" dataType="float"/>
		<DataField name="pixel188" optype="continuous" dataType="float"/>
		<DataField name="pixel189" optype="continuous" dataType="float"/>
		<DataField name="pixel190" optype="continuous" dataType="float"/>
		<DataField name="pixel191" optype="continuous" dataType="float"/>
		<DataField name="pixel193" optype="continuous" dataType="float"/>
		<DataField name="pixel199" optype="continuous" dataType="float"/>
		<DataField name="pixel200" optype="continuous" dataType="float"/>
		<DataField name="pixel201" optype="continuous" dataType="float"/>
		<DataField name="pixel203" optype="continuous" dataType="float"/>
		<DataField name="pixel204" optype="continuous" dataType="float"/>
		<DataField name="pixel205" optype="continuous" dataType="float"/>
		<DataField name="pixel206" optype="continuous" dataType="float"/>
		<DataField name="pixel207" optype="continuous" dataType="float"/>
		<DataField name="pixel208" optype="continuous" dataType="float"/>
		<DataField name="pixel209" optype="continuous" dataType="float"/>
		<DataField name="pixel210" optype="continuous" dataType="float"/>
		<DataField name="pixel211" optype="continuous" dataType="float"/>
		<DataField name="pixel212" optype="continuous" dataType="float"/>
		<DataField name="pixel213" optype="continuous" dataType="float"/>
		<DataField name="pixel214" optype="continuous" dataType="float"/>
		<DataField name="pixel215" optype="continuous" dataType="float"/>
		<DataField name="pixel216" optype="continuous" dataType="float"/>
		<DataField name="pixel217" optype="continuous" dataType="float"/>
		<DataField name="pixel218" optype="continuous" dataType="float"/>
		<DataField name="pixel219" optype="continuous" dataType="float"/>
		<DataField name="pixel220" optype="continuous" dataType="float"/>
		<DataField name="pixel221" optype="continuous" dataType="float"/>
		<DataField name="pixel228" optype="continuous" dataType="float"/>
		<DataField name="pixel230" optype="continuous" dataType="float"/>
		<DataField name="pixel231" optype="continuous" dataType="float"/>
		<DataField name="pixel232" optype="continuous" dataType="float"/>
		<DataField name="pixel233" optype="continuous" dataType="float"/>
		<DataField name="pixel234" optype="continuous" dataType="float"/>
		<DataField name="pixel235" optype="continuous" dataType="float"/>
		<DataField name="pixel236" optype="continuous" dataType="float"/>
		<DataField name="pixel237" optype="continuous" dataType="float"/>
		<DataField name="pixel238" optype="continuous" dataType="float"/>
		<DataField name="pixel239" optype="continuous" dataType="float"/>
		<DataField name="pixel240" optype="continuous" dataType="float"/>
		<DataField name="pixel241" optype="continuous" dataType="float"/>
		<DataField name="pixel242" optype="continuous" dataType="float"/>
		<DataField name="pixel243" optype="continuous" dataType="float"/>
		<DataField name="pixel244" optype="continuous" dataType="float"/>
		<DataField name="pixel245" optype="continuous" dataType="float"/>
		<DataField name="pixel246" optype="continuous" dataType="float"/>
		<DataField name="pixel247" optype="continuous" dataType="float"/>
		<DataField name="pixel248" optype="continuous" dataType="float"/>
		<DataField name="pixel250" optype="continuous" dataType="float"/>
		<DataField name="pixel255" optype="continuous" dataType="float"/>
		<DataField name="pixel256" optype="continuous" dataType="float"/>
		<DataField name="pixel258" optype="continuous" dataType="float"/>
		<DataField name="pixel259" optype="continuous" dataType="float"/>
		<DataField name="pixel260" optype="continuous" dataType="float"/>
		<DataField name="pixel261" optype="continuous" dataType="float"/>
		<DataField name="pixel262" optype="continuous" dataType="float"/>
		<DataField name="pixel263" optype="continuous" dataType="float"/>
		<DataField name="pixel264" optype="continuous" dataType="float"/>
		<DataField name="pixel265" optype="continuous" dataType="float"/>
		<DataField name="pixel266" optype="continuous" dataType="float"/>
		<DataField name="pixel267" optype="continuous" dataType="float"/>
		<DataField name="pixel268" optype="continuous" dataType="float"/>
		<DataField name="pixel269" optype="continuous" dataType="float"/>
		<DataField name="pixel270" optype="continuous" dataType="float"/>
		<DataField name="pixel271" optype="continuous" dataType="float"/>
		<DataField name="pixel272" optype="continuous" dataType="float"/>
		<DataField name="pixel273" optype="continuous" dataType="float"/>
		<DataField name="pixel274" optype="continuous" dataType="float"/>
		<DataField name="pixel275" optype="continuous" dataType="float"/>
		<DataField name="pixel276" optype="continuous" dataType="float"/>
		<DataField name="pixel283" optype="continuous" dataType="float"/>
		<DataField name="pixel284" optype="continuous" dataType="float"/>
		<DataField name="pixel285" optype="continuous" dataType="float"/>
		<DataField name="pixel286" optype="continuous" dataType="float"/>
		<DataField name="pixel287" optype="continuous" dataType="float"/>
		<DataField name="pixel288" optype="continuous" dataType="float"/>
		<DataField name="pixel289" optype="continuous" dataType="float"/>
		<DataField name="pixel290" optype="continuous" dataType="float"/>
		<DataField name="pixel291" optype="continuous" dataType="float"/>
		<DataField name="pixel292" optype="continuous" dataType="float"/>
		<DataField name="pixel293" optype="continuous" dataType="float"/>
		<DataField name="pixel294" optype="continuous" dataType="float"/>
		<DataField name="pixel295" optype="continuous" dataType="float"/>
		<DataField name="pixel296" optype="continuous" dataType="float"/>
		<DataField name="pixel297" optype="continuous" dataType="float"/>
		<DataField name="pixel298" optype="continuous" dataType="float"/>
		<DataField name="pixel299" optype="continuous" dataType="float"/>
		<DataField name="pixel300" optype="continuous" dataType="float"/>
		<DataField name="pixel301" optype="continuous" dataType="float"/>
		<DataField name="pixel302" optype="continuous" dataType="float"/>
		<DataField name="pixel303" optype="continuous" dataType="float"/>
		<DataField name="pixel304" optype="continuous" dataType="float"/>
		<DataField name="pixel305" optype="continuous" dataType="float"/>
		<DataField name="pixel306" optype="continuous" dataType="float"/>
		<DataField name="pixel311" optype="continuous" dataType="float"/>
		<DataField name="pixel313" optype="continuous" dataType="float"/>
		<DataField name="pixel314" optype="continuous" dataType="float"/>
		<DataField name="pixel315" optype="continuous" dataType="float"/>
		<DataField name="pixel316" optype="continuous" dataType="float"/>
		<DataField name="pixel317" optype="continuous" dataType="float"/>
		<DataField name="pixel318" optype="continuous" dataType="float"/>
		<DataField name="pixel319" optype="continuous" dataType="float"/>
		<DataField name="pixel320" optype="continuous" dataType="float"/>
		<DataField name="pixel321" optype="continuous" dataType="float"/>
		<DataField name="pixel322" optype="continuous" dataType="float"/>
		<DataField name="pixel323" optype="continuous" dataType="float"/>
		<DataField name="pixel324" optype="continuous" dataType="float"/>
		<DataField name="pixel325" optype="continuous" dataType="float"/>
		<DataField name="pixel326" optype="continuous" dataType="float"/>
		<DataField name="pixel327" optype="continuous" dataType="float"/>
		<DataField name="pixel328" optype="continuous" dataType="float"/>
		<DataField name="pixel329" optype="continuous" dataType="float"/>
		<DataField name="pixel330" optype="continuous" dataType="float"/>
		<DataField name="pixel331" optype="continuous" dataType="float"/>
		<DataField name="pixel332" optype="continuous" dataType="float"/>
		<DataField name="pixel334" optype="continuous" dataType="float"/>
		<DataField name="pixel339" optype="continuous" dataType="float"/>
		<DataField name="pixel340" optype="continuous" dataType="float"/>
		<DataField name="pixel342" optype="continuous" dataType="float"/>
		<DataField name="pixel343" optype="continuous" dataType="float"/>
		<DataField name="pixel344" optype="continuous" dataType="float"/>
		<DataField name="pixel345" optype="continuous" dataType="float"/>
		<DataField name="pixel346" optype="continuous" dataType="float"/>
		<DataField name="pixel347" optype="continuous" dataType="float"/>
		<DataField name="pixel348" optype="continuous" dataType="float"/>
		<DataField name="pixel349" optype="continuous" dataType="float"/>
		<DataField name="pixel350" optype="continuous" dataType="float"/>
		<DataField name="pixel351" optype="continuous" dataType="float"/>
		<DataField name="pixel352" optype="continuous" dataType="float"/>
		<DataField name="pixel353" optype="continuous" dataType="float"/>
		<DataField name="pixel354" optype="continuous" dataType="float"/>
		<DataField name="pixel355" optype="continuous" dataType="float"/>
		<DataField name="pixel356" optype="continuous" dataType="float"/>
		<DataField name="pixel357" optype="continuous" dataType="float"/>
		<DataField name="pixel358" optype="continuous" dataType="float"/>
		<DataField name="pixel359" optype="continuous" dataType="float"/>
		<DataField name="pixel368" optype="continuous" dataType="float"/>
		<DataField name="pixel369" optype="continuous" dataType="float"/>
		<DataField name="pixel370" optype="continuous" dataType="float"/>
		<DataField name="pixel371" optype="continuous" dataType="float"/>
		<DataField name="pixel372" optype="continuous" dataType="float"/>
		<DataField name="pixel373" optype="continuous" dataType="float"/>
		<DataField name="pixel374" optype="continuous" dataType="float"/>
		<DataField name="pixel375" optype="continuous" dataType="float"/>
		<DataField name="pixel376" optype="continuous" dataType="float"/>
		<DataField name="pixel377" optype="continuous" dataType="float"/>
		<DataField name="pixel378" optype="continuous" dataType="float"/>
		<DataField name="pixel379" optype="continuous" dataType="float"/>
		<DataField name="pixel380" optype="continuous" dataType="float"/>
		<DataField name="pixel381" optype="continuous" dataType="float"/>
		<DataField name="pixel382" optype="continuous" dataType="float"/>
		<DataField name="pixel383" optype="continuous" dataType="float"/>
		<DataField name="pixel384" optype="continuous" dataType="float"/>
		<DataField name="pixel385" optype="continuous" dataType="float"/>
		<DataField name="pixel386" optype="continuous" dataType="float"/>
		<DataField name="pixel387" optype="continuous" dataType="float"/>
		<DataField name="pixel388" optype="continuous" dataType="float"/>
		<DataField name="pixel390" optype="continuous" dataType="float"/>
		<DataField name="pixel396" optype="continuous" dataType="float"/>
		<DataField name="pixel397" optype="continuous" dataType="float"/>
		<DataField name="pixel398" optype="continuous" dataType="float"/>
		<DataField name="pixel399" optype="continuous" dataType="float"/>
		<DataField name="pixel400" optype="continuous" dataType="float"/>
		<DataField name="pixel401" optype="continuous" dataType="float"/>
		<DataField name="pixel402" optype="continuous" dataType="float"/>
		<DataField name="pixel403" optype="continuous" dataType="float"/>
		<DataField name="pixel404" optype="continuous" dataType="float"/>
		<DataField name="pixel405" optype="continuous" dataType="float"/>
		<DataField name="pixel406" optype="continuous" dataType="float"/>
		<DataField name="pixel407" optype="continuous" dataType="float"/>
		<DataField name="pixel408" optype="continuous" dataType="float"/>
		<DataField name="pixel409" optype="continuous" dataType="float"/>
		<DataField name="pixel410" optype="continuous" dataType="float"/>
		<DataField name="pixel411" optype="continuous" dataType="float"/>
		<DataField name="pixel412" optype="continuous" dataType="float"/>
		<DataField name="pixel413" optype="continuous" dataType="float"/>
		<DataField name="pixel414" optype="continuous" dataType="float"/>
		<DataField name="pixel415" optype="continuous" dataType="float"/>
		<DataField name="pixel416" optype="continuous" dataType="float"/>
		<DataField name="pixel423" optype="continuous" dataType="float"/>
		<DataField name="pixel424" optype="continuous" dataType="float"/>
		<DataField name="pixel425" optype="continuous" dataType="float"/>
		<DataField name="pixel426" optype="continuous" dataType="float"/>
		<DataField name="pixel427" optype="continuous" dataType="float"/>
		<DataField name="pixel428" optype="continuous" dataType="float"/>
		<DataField name="pixel429" optype="continuous" dataType="float"/>
		<DataField name="pixel430" optype="continuous" dataType="float"/>
		<DataField name="pixel431" optype="continuous" dataType="float"/>
		<DataField name="pixel432" optype="continuous" dataType="float"/>
		<DataField name="pixel433" optype="continuous" dataType="float"/>
		<DataField name="pixel434" optype="continuous" dataType="float"/>
		<DataField name="pixel435" optype="continuous" dataType="float"/>
		<DataField name="pixel436" optype="continuous" dataType="float"/>
		<DataField name="pixel437" optype="continuous" dataType="float"/>
		<DataField name="pixel438" optype="continuous" dataType="float"/>
		<DataField name="pixel439" optype="continuous" dataType="float"/>
		<DataField name="pixel440" optype="continuous" dataType="float"/>
		<DataField name="pixel441" optype="continuous" dataType="float"/>
		<DataField name="pixel442" optype="continuous" dataType="float"/>
		<DataField name="pixel443" optype="continuous" dataType="float"/>
		<DataField name="pixel453" optype="continuous" dataType="float"/>
		<DataField name="pixel454" optype="continuous" dataType="float"/>
		<DataField name="pixel455" optype="continuous" dataType="float"/>
		<DataField name="pixel456" optype="continuous" dataType="float"/>
		<DataField name="pixel457" optype="continuous" dataType="float"/>
		<DataField name="pixel458" optype="continuous" dataType="float"/>
		<DataField name="pixel459" optype="continuous" dataType="float"/>
		<DataField name="pixel46" optype="continuous" dataType="float"/>
		<DataField name="pixel460" optype="continuous" dataType="float"/>
		<DataField name="pixel461" optype="continuous" dataType="float"/>
		<DataField name="pixel462" optype="continuous" dataType="float"/>
		<DataField name="pixel463" optype="continuous" dataType="float"/>
		<DataField name="pixel464" optype="continuous" dataType="float"/>
		<DataField name="pixel465" optype="continuous" dataType="float"/>
		<DataField name="pixel466" optype="continuous" dataType="float"/>
		<DataField name="pixel467" optype="continuous" dataType="float"/>
		<DataField name="pixel468" optype="continuous" dataType="float"/>
		<DataField name="pixel469" optype="continuous" dataType="float"/>
		<DataField name="pixel470" optype="continuous" dataType="float"/>
		<DataField name="pixel471" optype="continuous" dataType="float"/>
		<DataField name="pixel473" optype="continuous" dataType="float"/>
		<DataField name="pixel474" optype="continuous" dataType="float"/>
		<DataField name="pixel479" optype="continuous" dataType="float"/>
		<DataField name="pixel481" optype="continuous" dataType="float"/>
		<DataField name="pixel482" optype="continuous" dataType="float"/>
		<DataField name="pixel483" optype="continuous" dataType="float"/>
		<DataField name="pixel484" optype="continuous" dataType="float"/>
		<DataField name="pixel485" optype="continuous" dataType="float"/>
		<DataField name="pixel486" optype="continuous" dataType="float"/>
		<DataField name="pixel487" optype="continuous" dataType="float"/>
		<DataField name="pixel488" optype="continuous" dataType="float"/>
		<DataField name="pixel489" optype="continuous" dataType="float"/>
		<DataField name="pixel490" optype="continuous" dataType="float"/>
		<DataField name="pixel491" optype="continuous" dataType="float"/>
		<DataField name="pixel492" optype="continuous" dataType="float"/>
		<DataField name="pixel493" optype="continuous" dataType="float"/>
		<DataField name="pixel494" optype="continuous" dataType="float"/>
		<DataField name="pixel495" optype="continuous" dataType="float"/>
		<DataField name="pixel496" optype="continuous" dataType="float"/>
		<DataField name="pixel497" optype="continuous" dataType="float"/>
		<DataField name="pixel498" optype="continuous" dataType="float"/>
		<DataField name="pixel499" optype="continuous" dataType="float"/>
		<DataField name="pixel500" optype="continuous" dataType="float"/>
		<DataField name="pixel506" optype="continuous" dataType="float"/>
		<DataField name="pixel507" optype="continuous" dataType="float"/>
		<DataField name="pixel509" optype="continuous" dataType="float"/>
		<DataField name="pixel51" optype="continuous" dataType="float"/>
		<DataField name="pixel510" optype="continuous" dataType="float"/>
		<DataField name="pixel511" optype="continuous" dataType="float"/>
		<DataField name="pixel512" optype="continuous" dataType="float"/>
		<DataField name="pixel513" optype="continuous" dataType="float"/>
		<DataField name="pixel514" optype="continuous" dataType="float"/>
		<DataField name="pixel515" optype="continuous" dataType="float"/>
		<DataField name="pixel516" optype="continuous" dataType="float"/>
		<DataField name="pixel517" optype="continuous" dataType="float"/>
		<DataField name="pixel518" optype="continuous" dataType="float"/>
		<DataField name="pixel519" optype="continuous" dataType="float"/>
		<DataField name="pixel520" optype="continuous" dataType="float"/>
		<DataField name="pixel521" optype="continuous" dataType="float"/>
		<DataField name="pixel522" optype="continuous" dataType="float"/>
		<DataField name="pixel523" optype="continuous" dataType="float"/>
		<DataField name="pixel524" optype="continuous" dataType="float"/>
		<DataField name="pixel525" optype="continuous" dataType="float"/>
		<DataField name="pixel526" optype="continuous" dataType="float"/>
		<DataField name="pixel527" optype="continuous" dataType="float"/>
		<DataField name="pixel528" optype="continuous" dataType="float"/>
		<DataField name="pixel529" optype="continuous" dataType="float"/>
		<DataField name="pixel530" optype="continuous" dataType="float"/>
		<DataField name="pixel535" optype="continuous" dataType="float"/>
		<DataField name="pixel536" optype="continuous" dataType="float"/>
		<DataField name="pixel537" optype="continuous" dataType="float"/>
		<DataField name="pixel538" optype="continuous" dataType="float"/>
		<DataField name="pixel539" optype="continuous" dataType="float"/>
		<DataField name="pixel540" optype="continuous" dataType="float"/>
		<DataField name="pixel541" optype="continuous" dataType="float"/>
		<DataField name="pixel542" optype="continuous" dataType="float"/>
		<DataField name="pixel543" optype="continuous" dataType="float"/>
		<DataField name="pixel544" optype="continuous" dataType="float"/>
		<DataField name="pixel545" optype="continuous" dataType="float"/>
		<DataField name="pixel546" optype="continuous" dataType="float"/>
		<DataField name="pixel547" optype="continuous" dataType="float"/>
		<DataField name="pixel548" optype="continuous" dataType="float"/>
		<DataField name="pixel549" optype="continuous" dataType="float"/>
		<DataField name="pixel550" optype="continuous" dataType="float"/>
		<DataField name="pixel551" optype="continuous" dataType="float"/>
		<DataField name="pixel552" optype="continuous" dataType="float"/>
		<DataField name="pixel553" optype="continuous" dataType="float"/>
		<DataField name="pixel554" optype="continuous" dataType="float"/>
		<DataField name="pixel555" optype="continuous" dataType="float"/>
		<DataField name="pixel562" optype="continuous" dataType="float"/>
		<DataField name="pixel563" optype="continuous" dataType="float"/>
		<DataField name="pixel565" optype="continuous" dataType="float"/>
		<DataField name="pixel566" optype="continuous" dataType="float"/>
		<DataField name="pixel567" optype="continuous" dataType="float"/>
		<DataField name="pixel568" optype="continuous" dataType="float"/>
		<DataField name="pixel569" optype="continuous" dataType="float"/>
		<DataField name="pixel570" optype="continuous" dataType="float"/>
		<DataField name="pixel571" optype="continuous" dataType="float"/>
		<DataField name="pixel572" optype="continuous" dataType="float"/>
		<DataField name="pixel573" optype="continuous" dataType="float"/>
		<DataField name="pixel574" optype="continuous" dataType="float"/>
		<DataField name="pixel575" optype="continuous" dataType="float"/>
		<DataField name="pixel576" optype="continuous" dataType="float"/>
		<DataField name="pixel577" optype="continuous" dataType="float"/>
		<DataField name="pixel578" optype="continuous" dataType="float"/>
		<DataField name="pixel579" optype="continuous" dataType="float"/>
		<DataField name="pixel580" optype="continuous" dataType="float"/>
		<DataField name="pixel581" optype="continuous" dataType="float"/>
		<DataField name="pixel582" optype="continuous" dataType="float"/>
		<DataField name="pixel583" optype="continuous" dataType="float"/>
		<DataField name="pixel584" optype="continuous" dataType="float"/>
		<DataField name="pixel592" optype="continuous" dataType="float"/>
		<DataField name="pixel593" optype="continuous" dataType="float"/>
		<DataField name="pixel594" optype="continuous" dataType="float"/>
		<DataField name="pixel595" optype="continuous" dataType="float"/>
		<DataField name="pixel596" optype="continuous" dataType="float"/>
		<DataField name="pixel597" optype="continuous" dataType="float"/>
		<DataField name="pixel598" optype="continuous" dataType="float"/>
		<DataField name="pixel599" optype="continuous" dataType="float"/>
		<DataField name="pixel600" optype="continuous" dataType="float"/>
		<DataField name="pixel601" optype="continuous" dataType="float"/>
		<DataField name="pixel602" optype="continuous" dataType="float"/>
		<DataField name="pixel603" optype="continuous" dataType="float"/>
		<DataField name="pixel604" optype="continuous" dataType="float"/>
		<DataField name="pixel605" optype="continuous" dataType="float"/>
		<DataField name="pixel606" optype="continuous" dataType="float"/>
		<DataField name="pixel607" optype="continuous" dataType="float"/>
		<DataField name="pixel608" optype="continuous" dataType="float"/>
		<DataField name="pixel609" optype="continuous" dataType="float"/>
		<DataField name="pixel611" optype="continuous" dataType="float"/>
		<DataField name="pixel619" optype="continuous" dataType="float"/>
		<DataField name="pixel620" optype="continuous" dataType="float"/>
		<DataField name="pixel621" optype="continuous" dataType="float"/>
		<DataField name="pixel622" optype="continuous" dataType="float"/>
		<DataField name="pixel623" optype="continuous" dataType="float"/>
		<DataField name="pixel624" optype="continuous" dataType="float"/>
		<DataField name="pixel625" optype="continuous" dataType="float"/>
		<DataField name="pixel626" optype="continuous" dataType="float"/>
		<DataField name="pixel627" optype="continuous" dataType="float"/>
		<DataField name="pixel628" optype="continuous" dataType="float"/>
		<DataField name="pixel629" optype="continuous" dataType="float"/>
		<DataField name="pixel630" optype="continuous" dataType="float"/>
		<DataField name="pixel631" optype="continuous" dataType="float"/>
		<DataField name="pixel632" optype="continuous" dataType="float"/>
		<DataField name="pixel633" optype="continuous" dataType="float"/>
		<DataField name="pixel634" optype="continuous" dataType="float"/>
		<DataField name="pixel635" optype="continuous" dataType="float"/>
		<DataField name="pixel636" optype="continuous" dataType="float"/>
		<DataField name="pixel638" optype="continuous" dataType="float"/>
		<DataField name="pixel640" optype="continuous" dataType="float"/>
		<DataField name="pixel647" optype="continuous" dataType="float"/>
		<DataField name="pixel648" optype="continuous" dataType="float"/>
		<DataField name="pixel649" optype="continuous" dataType="float"/>
		<DataField name="pixel651" optype="continuous" dataType="float"/>
		<DataField name="pixel652" optype="continuous" dataType="float"/>
		<DataField name="pixel653" optype="continuous" dataType="float"/>
		<DataField name="pixel654" optype="continuous" dataType="float"/>
		<DataField name="pixel655" optype="continuous" dataType="float"/>
		<DataField name="pixel656" optype="continuous" dataType="float"/>
		<DataField name="pixel657" optype="continuous" dataType="float"/>
		<DataField name="pixel658" optype="continuous" dataType="float"/>
		<DataField name="pixel659" optype="continuous" dataType="float"/>
		<DataField name="pixel660" optype="continuous" dataType="float"/>
		<DataField name="pixel661" optype="continuous" dataType="float"/>
		<DataField name="pixel662" optype="continuous" dataType="float"/>
		<DataField name="pixel663" optype="continuous" dataType="float"/>
		<DataField name="pixel664" optype="continuous" dataType="float"/>
		<DataField name="pixel665" optype="continuous" dataType="float"/>
		<DataField name="pixel666" optype="continuous" dataType="float"/>
		<DataField name="pixel676" optype="continuous" dataType="float"/>
		<DataField name="pixel677" optype="continuous" dataType="float"/>
		<DataField name="pixel678" optype="continuous" dataType="float"/>
		<DataField name="pixel679" optype="continuous" dataType="float"/>
		<DataField name="pixel680" optype="continuous" dataType="float"/>
		<DataField name="pixel681" optype="continuous" dataType="float"/>
		<DataField name="pixel682" optype="continuous" dataType="float"/>
		<DataField name="pixel683" optype="continuous" dataType="float"/>
		<DataField name="pixel684" optype="continuous" dataType="float"/>
		<DataField name="pixel685" optype="continuous" dataType="float"/>
		<DataField name="pixel686" optype="continuous" dataType="float"/>
		<DataField name="pixel687" optype="continuous" dataType="float"/>
		<DataField name="pixel688" optype="continuous" dataType="float"/>
		<DataField name="pixel689" optype="continuous" dataType="float"/>
		<DataField name="pixel690" optype="continuous" dataType="float"/>
		<DataField name="pixel691" optype="continuous" dataType="float"/>
		<DataField name="pixel692" optype="continuous" dataType="float"/>
		<DataField name="pixel694" optype="continuous" dataType="float"/>
		<DataField name="pixel695" optype="continuous" dataType="float"/>
		<DataField name="pixel70" optype="continuous" dataType="float"/>
		<DataField name="pixel707" optype="continuous" dataType="float"/>
		<DataField name="pixel708" optype="continuous" dataType="float"/>
		<DataField name="pixel709" optype="continuous" dataType="float"/>
		<DataField name="pixel71" optype="continuous" dataType="float"/>
		<DataField name="pixel710" optype="continuous" dataType="float"/>
		<DataField name="pixel711" optype="continuous" dataType="float"/>
		<DataField name="pixel712" optype="continuous" dataType="float"/>
		<DataField name="pixel713" optype="continuous" dataType="float"/>
		<DataField name="pixel714" optype="continuous" dataType="float"/>
		<DataField name="pixel716" optype="continuous" dataType="float"/>
		<DataField name="pixel717" optype="continuous" dataType="float"/>
		<DataField name="pixel718" optype="continuous" dataType="float"/>
		<DataField name="pixel719" optype="continuous" dataType="float"/>
		<DataField name="pixel720" optype="continuous" dataType="float"/>
		<DataField name="pixel721" optype="continuous" dataType="float"/>
		<DataField name="pixel73" optype="continuous" dataType="float"/>
		<DataField name="pixel733" optype="continuous" dataType="float"/>
		<DataField name="pixel737" optype="continuous" dataType="float"/>
		<DataField name="pixel742" optype="continuous" dataType="float"/>
		<DataField name="pixel743" optype="continuous" dataType="float"/>
		<DataField name="pixel745" optype="continuous" dataType="float"/>
		<DataField name="pixel747" optype="continuous" dataType="float"/>
		<DataField name="pixel91" optype="continuous" dataType="float"/>
		<DataField name="pixel92" optype="continuous" dataType="float"/>
		<DataField name="pixel93" optype="continuous" dataType="float"/>
		<DataField name="pixel94" optype="continuous" dataType="float"/>
		<DataField name="pixel96" optype="continuous" dataType="float"/>
		<DataField name="pixel97" optype="continuous" dataType="float"/>
		<DataField name="pixel98" optype="continuous" dataType="float"/>
		<DataField name="pixel99" optype="continuous" dataType="float"/>
	</DataDictionary>
	<TransformationDictionary>
		<DerivedField name="double(pixel409)" optype="continuous" dataType="double">
			<FieldRef field="pixel409"/>
		</DerivedField>
		<DerivedField name="double(pixel434)" optype="continuous" dataType="double">
			<FieldRef field="pixel434"/>
		</DerivedField>
		<DerivedField name="double(pixel455)" optype="continuous" dataType="double">
			<FieldRef field="pixel455"/>
		</DerivedField>
		<DerivedField name="double(pixel323)" optype="continuous" dataType="double">
			<FieldRef field="pixel323"/>
		</DerivedField>
		<DerivedField name="double(pixel489)" optype="continuous" dataType="double">
			<FieldRef field="pixel489"/>
		</DerivedField>
		<DerivedField name="double(pixel183)" optype="continuous" dataType="double">
			<FieldRef field="pixel183"/>
		</DerivedField>
		<DerivedField name="double(pixel570)" optype="continuous" dataType="double">
			<FieldRef field="pixel570"/>
		</DerivedField>
		<DerivedField name="double(pixel624)" optype="continuous" dataType="double">
			<FieldRef field="pixel624"/>
		</DerivedField>
		<DerivedField name="double(pixel153)" optype="continuous" dataType="double">
			<FieldRef field="pixel153"/>
		</DerivedField>
		<DerivedField name="double(pixel608)" optype="continuous" dataType="double">
			<FieldRef field="pixel608"/>
		</DerivedField>
		<DerivedField name="double(pixel404)" optype="continuous" dataType="double">
			<FieldRef field="pixel404"/>
		</DerivedField>
		<DerivedField name="double(pixel381)" optype="continuous" dataType="double">
			<FieldRef field="pixel381"/>
		</DerivedField>
		<DerivedField name="double(pixel654)" optype="continuous" dataType="double">
			<FieldRef field="pixel654"/>
		</DerivedField>
		<DerivedField name="double(pixel568)" optype="continuous" dataType="double">
			<FieldRef field="pixel568"/>
		</DerivedField>
		<DerivedField name="double(pixel293)" optype="continuous" dataType="double">
			<FieldRef field="pixel293"/>
		</DerivedField>
		<DerivedField name="double(pixel376)" optype="continuous" dataType="double">
			<FieldRef field="pixel376"/>
		</DerivedField>
		<DerivedField name="double(pixel125)" optype="continuous" dataType="double">
			<FieldRef field="pixel125"/>
		</DerivedField>
		<DerivedField name="double(pixel516)" optype="continuous" dataType="double">
			<FieldRef field="pixel516"/>
		</DerivedField>
		<DerivedField name="double(pixel594)" optype="continuous" dataType="double">
			<FieldRef field="pixel594"/>
		</DerivedField>
		<DerivedField name="double(pixel431)" optype="continuous" dataType="double">
			<FieldRef field="pixel431"/>
		</DerivedField>
		<DerivedField name="double(pixel94)" optype="continuous" dataType="double">
			<FieldRef field="pixel94"/>
		</DerivedField>
		<DerivedField name="double(pixel233)" optype="continuous" dataType="double">
			<FieldRef field="pixel233"/>
		</DerivedField>
		<DerivedField name="double(pixel385)" optype="continuous" dataType="double">
			<FieldRef field="pixel385"/>
		</DerivedField>
		<DerivedField name="double(pixel349)" optype="continuous" dataType="double">
			<FieldRef field="pixel349"/>
		</DerivedField>
		<DerivedField name="double(pixel627)" optype="continuous" dataType="double">
			<FieldRef field="pixel627"/>
		</DerivedField>
		<DerivedField name="double(pixel128)" optype="continuous" dataType="double">
			<FieldRef field="pixel128"/>
		</DerivedField>
		<DerivedField name="double(pixel272)" optype="continuous" dataType="double">
			<FieldRef field="pixel272"/>
		</DerivedField>
		<DerivedField name="double(pixel513)" optype="continuous" dataType="double">
			<FieldRef field="pixel513"/>
		</DerivedField>
		<DerivedField name="double(pixel180)" optype="continuous" dataType="double">
			<FieldRef field="pixel180"/>
		</DerivedField>
		<DerivedField name="double(pixel574)" optype="continuous" dataType="double">
			<FieldRef field="pixel574"/>
		</DerivedField>
		<DerivedField name="double(pixel177)" optype="continuous" dataType="double">
			<FieldRef field="pixel177"/>
		</DerivedField>
		<DerivedField name="double(pixel519)" optype="continuous" dataType="double">
			<FieldRef field="pixel519"/>
		</DerivedField>
		<DerivedField name="double(pixel686)" optype="continuous" dataType="double">
			<FieldRef field="pixel686"/>
		</DerivedField>
		<DerivedField name="double(pixel719)" optype="continuous" dataType="double">
			<FieldRef field="pixel719"/>
		</DerivedField>
		<DerivedField name="double(pixel357)" optype="continuous" dataType="double">
			<FieldRef field="pixel357"/>
		</DerivedField>
		<DerivedField name="double(pixel260)" optype="continuous" dataType="double">
			<FieldRef field="pixel260"/>
		</DerivedField>
		<DerivedField name="double(pixel512)" optype="continuous" dataType="double">
			<FieldRef field="pixel512"/>
		</DerivedField>
		<DerivedField name="double(pixel487)" optype="continuous" dataType="double">
			<FieldRef field="pixel487"/>
		</DerivedField>
		<DerivedField name="double(pixel380)" optype="continuous" dataType="double">
			<FieldRef field="pixel380"/>
		</DerivedField>
		<DerivedField name="double(pixel546)" optype="continuous" dataType="double">
			<FieldRef field="pixel546"/>
		</DerivedField>
		<DerivedField name="double(pixel295)" optype="continuous" dataType="double">
			<FieldRef field="pixel295"/>
		</DerivedField>
		<DerivedField name="double(pixel500)" optype="continuous" dataType="double">
			<FieldRef field="pixel500"/>
		</DerivedField>
		<DerivedField name="double(pixel106)" optype="continuous" dataType="double">
			<FieldRef field="pixel106"/>
		</DerivedField>
		<DerivedField name="double(pixel176)" optype="continuous" dataType="double">
			<FieldRef field="pixel176"/>
		</DerivedField>
		<DerivedField name="double(pixel294)" optype="continuous" dataType="double">
			<FieldRef field="pixel294"/>
		</DerivedField>
		<DerivedField name="double(pixel661)" optype="continuous" dataType="double">
			<FieldRef field="pixel661"/>
		</DerivedField>
		<DerivedField name="double(pixel541)" optype="continuous" dataType="double">
			<FieldRef field="pixel541"/>
		</DerivedField>
		<DerivedField name="double(pixel208)" optype="continuous" dataType="double">
			<FieldRef field="pixel208"/>
		</DerivedField>
		<DerivedField name="double(pixel271)" optype="continuous" dataType="double">
			<FieldRef field="pixel271"/>
		</DerivedField>
		<DerivedField name="double(pixel552)" optype="continuous" dataType="double">
			<FieldRef field="pixel552"/>
		</DerivedField>
		<DerivedField name="double(pixel291)" optype="continuous" dataType="double">
			<FieldRef field="pixel291"/>
		</DerivedField>
		<DerivedField name="double(pixel318)" optype="continuous" dataType="double">
			<FieldRef field="pixel318"/>
		</DerivedField>
		<DerivedField name="double(pixel679)" optype="continuous" dataType="double">
			<FieldRef field="pixel679"/>
		</DerivedField>
		<DerivedField name="double(pixel544)" optype="continuous" dataType="double">
			<FieldRef field="pixel544"/>
		</DerivedField>
		<DerivedField name="double(pixel437)" optype="continuous" dataType="double">
			<FieldRef field="pixel437"/>
		</DerivedField>
		<DerivedField name="double(pixel635)" optype="continuous" dataType="double">
			<FieldRef field="pixel635"/>
		</DerivedField>
		<DerivedField name="double(pixel347)" optype="continuous" dataType="double">
			<FieldRef field="pixel347"/>
		</DerivedField>
		<DerivedField name="double(pixel187)" optype="continuous" dataType="double">
			<FieldRef field="pixel187"/>
		</DerivedField>
		<DerivedField name="double(pixel493)" optype="continuous" dataType="double">
			<FieldRef field="pixel493"/>
		</DerivedField>
		<DerivedField name="double(pixel543)" optype="continuous" dataType="double">
			<FieldRef field="pixel543"/>
		</DerivedField>
		<DerivedField name="double(pixel439)" optype="continuous" dataType="double">
			<FieldRef field="pixel439"/>
		</DerivedField>
		<DerivedField name="double(pixel130)" optype="continuous" dataType="double">
			<FieldRef field="pixel130"/>
		</DerivedField>
		<DerivedField name="double(pixel71)" optype="continuous" dataType="double">
			<FieldRef field="pixel71"/>
		</DerivedField>
		<DerivedField name="double(pixel378)" optype="continuous" dataType="double">
			<FieldRef field="pixel378"/>
		</DerivedField>
		<DerivedField name="double(pixel525)" optype="continuous" dataType="double">
			<FieldRef field="pixel525"/>
		</DerivedField>
		<DerivedField name="double(pixel73)" optype="continuous" dataType="double">
			<FieldRef field="pixel73"/>
		</DerivedField>
		<DerivedField name="double(pixel241)" optype="continuous" dataType="double">
			<FieldRef field="pixel241"/>
		</DerivedField>
		<DerivedField name="double(pixel351)" optype="continuous" dataType="double">
			<FieldRef field="pixel351"/>
		</DerivedField>
		<DerivedField name="double(pixel625)" optype="continuous" dataType="double">
			<FieldRef field="pixel625"/>
		</DerivedField>
		<DerivedField name="double(pixel242)" optype="continuous" dataType="double">
			<FieldRef field="pixel242"/>
		</DerivedField>
		<DerivedField name="double(pixel548)" optype="continuous" dataType="double">
			<FieldRef field="pixel548"/>
		</DerivedField>
		<DerivedField name="double(pixel549)" optype="continuous" dataType="double">
			<FieldRef field="pixel549"/>
		</DerivedField>
		<DerivedField name="double(pixel682)" optype="continuous" dataType="double">
			<FieldRef field="pixel682"/>
		</DerivedField>
		<DerivedField name="double(pixel205)" optype="continuous" dataType="double">
			<FieldRef field="pixel205"/>
		</DerivedField>
		<DerivedField name="double(pixel490)" optype="continuous" dataType="double">
			<FieldRef field="pixel490"/>
		</DerivedField>
		<DerivedField name="double(pixel263)" optype="continuous" dataType="double">
			<FieldRef field="pixel263"/>
		</DerivedField>
		<DerivedField name="double(pixel425)" optype="continuous" dataType="double">
			<FieldRef field="pixel425"/>
		</DerivedField>
		<DerivedField name="double(pixel442)" optype="continuous" dataType="double">
			<FieldRef field="pixel442"/>
		</DerivedField>
		<DerivedField name="double(pixel156)" optype="continuous" dataType="double">
			<FieldRef field="pixel156"/>
		</DerivedField>
		<DerivedField name="double(pixel99)" optype="continuous" dataType="double">
			<FieldRef field="pixel99"/>
		</DerivedField>
		<DerivedField name="double(pixel626)" optype="continuous" dataType="double">
			<FieldRef field="pixel626"/>
		</DerivedField>
		<DerivedField name="double(pixel97)" optype="continuous" dataType="double">
			<FieldRef field="pixel97"/>
		</DerivedField>
		<DerivedField name="double(pixel547)" optype="continuous" dataType="double">
			<FieldRef field="pixel547"/>
		</DerivedField>
		<DerivedField name="double(pixel599)" optype="continuous" dataType="double">
			<FieldRef field="pixel599"/>
		</DerivedField>
		<DerivedField name="double(pixel262)" optype="continuous" dataType="double">
			<FieldRef field="pixel262"/>
		</DerivedField>
		<DerivedField name="double(pixel515)" optype="continuous" dataType="double">
			<FieldRef field="pixel515"/>
		</DerivedField>
		<DerivedField name="double(pixel284)" optype="continuous" dataType="double">
			<FieldRef field="pixel284"/>
		</DerivedField>
		<DerivedField name="double(pixel486)" optype="continuous" dataType="double">
			<FieldRef field="pixel486"/>
		</DerivedField>
		<DerivedField name="double(pixel289)" optype="continuous" dataType="double">
			<FieldRef field="pixel289"/>
		</DerivedField>
		<DerivedField name="double(pixel152)" optype="continuous" dataType="double">
			<FieldRef field="pixel152"/>
		</DerivedField>
		<DerivedField name="double(pixel207)" optype="continuous" dataType="double">
			<FieldRef field="pixel207"/>
		</DerivedField>
		<DerivedField name="double(pixel457)" optype="continuous" dataType="double">
			<FieldRef field="pixel457"/>
		</DerivedField>
		<DerivedField name="double(pixel536)" optype="continuous" dataType="double">
			<FieldRef field="pixel536"/>
		</DerivedField>
		<DerivedField name="double(pixel320)" optype="continuous" dataType="double">
			<FieldRef field="pixel320"/>
		</DerivedField>
		<DerivedField name="double(pixel352)" optype="continuous" dataType="double">
			<FieldRef field="pixel352"/>
		</DerivedField>
		<DerivedField name="double(pixel158)" optype="continuous" dataType="double">
			<FieldRef field="pixel158"/>
		</DerivedField>
		<DerivedField name="double(pixel104)" optype="continuous" dataType="double">
			<FieldRef field="pixel104"/>
		</DerivedField>
		<DerivedField name="double(pixel340)" optype="continuous" dataType="double">
			<FieldRef field="pixel340"/>
		</DerivedField>
		<DerivedField name="double(pixel659)" optype="continuous" dataType="double">
			<FieldRef field="pixel659"/>
		</DerivedField>
		<DerivedField name="double(pixel386)" optype="continuous" dataType="double">
			<FieldRef field="pixel386"/>
		</DerivedField>
		<DerivedField name="double(pixel101)" optype="continuous" dataType="double">
			<FieldRef field="pixel101"/>
		</DerivedField>
		<DerivedField name="double(pixel160)" optype="continuous" dataType="double">
			<FieldRef field="pixel160"/>
		</DerivedField>
		<DerivedField name="double(pixel215)" optype="continuous" dataType="double">
			<FieldRef field="pixel215"/>
		</DerivedField>
		<DerivedField name="double(pixel182)" optype="continuous" dataType="double">
			<FieldRef field="pixel182"/>
		</DerivedField>
		<DerivedField name="double(pixel350)" optype="continuous" dataType="double">
			<FieldRef field="pixel350"/>
		</DerivedField>
		<DerivedField name="double(pixel524)" optype="continuous" dataType="double">
			<FieldRef field="pixel524"/>
		</DerivedField>
		<DerivedField name="double(pixel237)" optype="continuous" dataType="double">
			<FieldRef field="pixel237"/>
		</DerivedField>
		<DerivedField name="double(pixel290)" optype="continuous" dataType="double">
			<FieldRef field="pixel290"/>
		</DerivedField>
		<DerivedField name="double(pixel315)" optype="continuous" dataType="double">
			<FieldRef field="pixel315"/>
		</DerivedField>
		<DerivedField name="double(pixel462)" optype="continuous" dataType="double">
			<FieldRef field="pixel462"/>
		</DerivedField>
		<DerivedField name="double(pixel316)" optype="continuous" dataType="double">
			<FieldRef field="pixel316"/>
		</DerivedField>
		<DerivedField name="double(pixel276)" optype="continuous" dataType="double">
			<FieldRef field="pixel276"/>
		</DerivedField>
		<DerivedField name="double(pixel314)" optype="continuous" dataType="double">
			<FieldRef field="pixel314"/>
		</DerivedField>
		<DerivedField name="double(pixel264)" optype="continuous" dataType="double">
			<FieldRef field="pixel264"/>
		</DerivedField>
		<DerivedField name="double(pixel550)" optype="continuous" dataType="double">
			<FieldRef field="pixel550"/>
		</DerivedField>
		<DerivedField name="double(pixel321)" optype="continuous" dataType="double">
			<FieldRef field="pixel321"/>
		</DerivedField>
		<DerivedField name="double(pixel527)" optype="continuous" dataType="double">
			<FieldRef field="pixel527"/>
		</DerivedField>
		<DerivedField name="double(pixel240)" optype="continuous" dataType="double">
			<FieldRef field="pixel240"/>
		</DerivedField>
		<DerivedField name="double(pixel325)" optype="continuous" dataType="double">
			<FieldRef field="pixel325"/>
		</DerivedField>
		<DerivedField name="double(pixel571)" optype="continuous" dataType="double">
			<FieldRef field="pixel571"/>
		</DerivedField>
		<DerivedField name="double(pixel494)" optype="continuous" dataType="double">
			<FieldRef field="pixel494"/>
		</DerivedField>
		<DerivedField name="double(pixel356)" optype="continuous" dataType="double">
			<FieldRef field="pixel356"/>
		</DerivedField>
		<DerivedField name="double(pixel379)" optype="continuous" dataType="double">
			<FieldRef field="pixel379"/>
		</DerivedField>
		<DerivedField name="double(pixel607)" optype="continuous" dataType="double">
			<FieldRef field="pixel607"/>
		</DerivedField>
		<DerivedField name="double(pixel179)" optype="continuous" dataType="double">
			<FieldRef field="pixel179"/>
		</DerivedField>
		<DerivedField name="double(pixel468)" optype="continuous" dataType="double">
			<FieldRef field="pixel468"/>
		</DerivedField>
		<DerivedField name="double(pixel268)" optype="continuous" dataType="double">
			<FieldRef field="pixel268"/>
		</DerivedField>
		<DerivedField name="double(pixel266)" optype="continuous" dataType="double">
			<FieldRef field="pixel266"/>
		</DerivedField>
		<DerivedField name="double(pixel345)" optype="continuous" dataType="double">
			<FieldRef field="pixel345"/>
		</DerivedField>
		<DerivedField name="double(pixel210)" optype="continuous" dataType="double">
			<FieldRef field="pixel210"/>
		</DerivedField>
		<DerivedField name="double(pixel411)" optype="continuous" dataType="double">
			<FieldRef field="pixel411"/>
		</DerivedField>
		<DerivedField name="double(pixel521)" optype="continuous" dataType="double">
			<FieldRef field="pixel521"/>
		</DerivedField>
		<DerivedField name="double(pixel456)" optype="continuous" dataType="double">
			<FieldRef field="pixel456"/>
		</DerivedField>
		<DerivedField name="double(pixel324)" optype="continuous" dataType="double">
			<FieldRef field="pixel324"/>
		</DerivedField>
		<DerivedField name="double(pixel155)" optype="continuous" dataType="double">
			<FieldRef field="pixel155"/>
		</DerivedField>
		<DerivedField name="double(pixel288)" optype="continuous" dataType="double">
			<FieldRef field="pixel288"/>
		</DerivedField>
		<DerivedField name="double(pixel511)" optype="continuous" dataType="double">
			<FieldRef field="pixel511"/>
		</DerivedField>
		<DerivedField name="double(pixel577)" optype="continuous" dataType="double">
			<FieldRef field="pixel577"/>
		</DerivedField>
		<DerivedField name="double(pixel631)" optype="continuous" dataType="double">
			<FieldRef field="pixel631"/>
		</DerivedField>
		<DerivedField name="double(pixel121)" optype="continuous" dataType="double">
			<FieldRef field="pixel121"/>
		</DerivedField>
		<DerivedField name="double(pixel346)" optype="continuous" dataType="double">
			<FieldRef field="pixel346"/>
		</DerivedField>
		<DerivedField name="double(pixel582)" optype="continuous" dataType="double">
			<FieldRef field="pixel582"/>
		</DerivedField>
		<DerivedField name="double(pixel292)" optype="continuous" dataType="double">
			<FieldRef field="pixel292"/>
		</DerivedField>
		<DerivedField name="double(pixel576)" optype="continuous" dataType="double">
			<FieldRef field="pixel576"/>
		</DerivedField>
		<DerivedField name="double(pixel273)" optype="continuous" dataType="double">
			<FieldRef field="pixel273"/>
		</DerivedField>
		<DerivedField name="double(pixel151)" optype="continuous" dataType="double">
			<FieldRef field="pixel151"/>
		</DerivedField>
		<DerivedField name="double(pixel382)" optype="continuous" dataType="double">
			<FieldRef field="pixel382"/>
		</DerivedField>
		<DerivedField name="double(pixel484)" optype="continuous" dataType="double">
			<FieldRef field="pixel484"/>
		</DerivedField>
		<DerivedField name="double(pixel460)" optype="continuous" dataType="double">
			<FieldRef field="pixel460"/>
		</DerivedField>
		<DerivedField name="double(pixel566)" optype="continuous" dataType="double">
			<FieldRef field="pixel566"/>
		</DerivedField>
		<DerivedField name="double(pixel492)" optype="continuous" dataType="double">
			<FieldRef field="pixel492"/>
		</DerivedField>
		<DerivedField name="double(pixel432)" optype="continuous" dataType="double">
			<FieldRef field="pixel432"/>
		</DerivedField>
		<DerivedField name="double(pixel471)" optype="continuous" dataType="double">
			<FieldRef field="pixel471"/>
		</DerivedField>
		<DerivedField name="double(pixel159)" optype="continuous" dataType="double">
			<FieldRef field="pixel159"/>
		</DerivedField>
		<DerivedField name="double(pixel123)" optype="continuous" dataType="double">
			<FieldRef field="pixel123"/>
		</DerivedField>
		<DerivedField name="double(pixel465)" optype="continuous" dataType="double">
			<FieldRef field="pixel465"/>
		</DerivedField>
		<DerivedField name="double(pixel387)" optype="continuous" dataType="double">
			<FieldRef field="pixel387"/>
		</DerivedField>
		<DerivedField name="double(pixel600)" optype="continuous" dataType="double">
			<FieldRef field="pixel600"/>
		</DerivedField>
		<DerivedField name="double(pixel604)" optype="continuous" dataType="double">
			<FieldRef field="pixel604"/>
		</DerivedField>
		<DerivedField name="double(pixel596)" optype="continuous" dataType="double">
			<FieldRef field="pixel596"/>
		</DerivedField>
		<DerivedField name="double(pixel453)" optype="continuous" dataType="double">
			<FieldRef field="pixel453"/>
		</DerivedField>
		<DerivedField name="double(pixel656)" optype="continuous" dataType="double">
			<FieldRef field="pixel656"/>
		</DerivedField>
		<DerivedField name="double(pixel538)" optype="continuous" dataType="double">
			<FieldRef field="pixel538"/>
		</DerivedField>
		<DerivedField name="double(pixel402)" optype="continuous" dataType="double">
			<FieldRef field="pixel402"/>
		</DerivedField>
		<DerivedField name="double(pixel602)" optype="continuous" dataType="double">
			<FieldRef field="pixel602"/>
		</DerivedField>
		<DerivedField name="double(pixel267)" optype="continuous" dataType="double">
			<FieldRef field="pixel267"/>
		</DerivedField>
		<DerivedField name="double(pixel355)" optype="continuous" dataType="double">
			<FieldRef field="pixel355"/>
		</DerivedField>
		<DerivedField name="double(pixel579)" optype="continuous" dataType="double">
			<FieldRef field="pixel579"/>
		</DerivedField>
		<DerivedField name="double(pixel467)" optype="continuous" dataType="double">
			<FieldRef field="pixel467"/>
		</DerivedField>
		<DerivedField name="double(pixel429)" optype="continuous" dataType="double">
			<FieldRef field="pixel429"/>
		</DerivedField>
		<DerivedField name="double(pixel372)" optype="continuous" dataType="double">
			<FieldRef field="pixel372"/>
		</DerivedField>
		<DerivedField name="double(pixel601)" optype="continuous" dataType="double">
			<FieldRef field="pixel601"/>
		</DerivedField>
		<DerivedField name="double(pixel375)" optype="continuous" dataType="double">
			<FieldRef field="pixel375"/>
		</DerivedField>
		<DerivedField name="double(pixel539)" optype="continuous" dataType="double">
			<FieldRef field="pixel539"/>
		</DerivedField>
		<DerivedField name="double(pixel403)" optype="continuous" dataType="double">
			<FieldRef field="pixel403"/>
		</DerivedField>
		<DerivedField name="double(pixel621)" optype="continuous" dataType="double">
			<FieldRef field="pixel621"/>
		</DerivedField>
		<DerivedField name="double(pixel440)" optype="continuous" dataType="double">
			<FieldRef field="pixel440"/>
		</DerivedField>
		<DerivedField name="double(pixel243)" optype="continuous" dataType="double">
			<FieldRef field="pixel243"/>
		</DerivedField>
		<DerivedField name="double(pixel214)" optype="continuous" dataType="double">
			<FieldRef field="pixel214"/>
		</DerivedField>
		<DerivedField name="double(pixel354)" optype="continuous" dataType="double">
			<FieldRef field="pixel354"/>
		</DerivedField>
		<DerivedField name="double(pixel495)" optype="continuous" dataType="double">
			<FieldRef field="pixel495"/>
		</DerivedField>
		<DerivedField name="double(pixel285)" optype="continuous" dataType="double">
			<FieldRef field="pixel285"/>
		</DerivedField>
		<DerivedField name="double(pixel529)" optype="continuous" dataType="double">
			<FieldRef field="pixel529"/>
		</DerivedField>
		<DerivedField name="double(pixel120)" optype="continuous" dataType="double">
			<FieldRef field="pixel120"/>
		</DerivedField>
		<DerivedField name="double(pixel358)" optype="continuous" dataType="double">
			<FieldRef field="pixel358"/>
		</DerivedField>
		<DerivedField name="double(pixel652)" optype="continuous" dataType="double">
			<FieldRef field="pixel652"/>
		</DerivedField>
		<DerivedField name="double(pixel463)" optype="continuous" dataType="double">
			<FieldRef field="pixel463"/>
		</DerivedField>
		<DerivedField name="double(pixel545)" optype="continuous" dataType="double">
			<FieldRef field="pixel545"/>
		</DerivedField>
		<DerivedField name="double(pixel401)" optype="continuous" dataType="double">
			<FieldRef field="pixel401"/>
		</DerivedField>
		<DerivedField name="double(pixel304)" optype="continuous" dataType="double">
			<FieldRef field="pixel304"/>
		</DerivedField>
		<DerivedField name="double(pixel398)" optype="continuous" dataType="double">
			<FieldRef field="pixel398"/>
		</DerivedField>
		<DerivedField name="double(pixel149)" optype="continuous" dataType="double">
			<FieldRef field="pixel149"/>
		</DerivedField>
		<DerivedField name="double(pixel688)" optype="continuous" dataType="double">
			<FieldRef field="pixel688"/>
		</DerivedField>
		<DerivedField name="double(pixel721)" optype="continuous" dataType="double">
			<FieldRef field="pixel721"/>
		</DerivedField>
		<DerivedField name="double(pixel396)" optype="continuous" dataType="double">
			<FieldRef field="pixel396"/>
		</DerivedField>
		<DerivedField name="double(pixel481)" optype="continuous" dataType="double">
			<FieldRef field="pixel481"/>
		</DerivedField>
		<DerivedField name="double(pixel410)" optype="continuous" dataType="double">
			<FieldRef field="pixel410"/>
		</DerivedField>
		<DerivedField name="double(pixel297)" optype="continuous" dataType="double">
			<FieldRef field="pixel297"/>
		</DerivedField>
		<DerivedField name="double(pixel640)" optype="continuous" dataType="double">
			<FieldRef field="pixel640"/>
		</DerivedField>
		<DerivedField name="double(pixel709)" optype="continuous" dataType="double">
			<FieldRef field="pixel709"/>
		</DerivedField>
		<DerivedField name="double(pixel103)" optype="continuous" dataType="double">
			<FieldRef field="pixel103"/>
		</DerivedField>
		<DerivedField name="double(pixel535)" optype="continuous" dataType="double">
			<FieldRef field="pixel535"/>
		</DerivedField>
		<DerivedField name="double(pixel711)" optype="continuous" dataType="double">
			<FieldRef field="pixel711"/>
		</DerivedField>
		<DerivedField name="double(pixel96)" optype="continuous" dataType="double">
			<FieldRef field="pixel96"/>
		</DerivedField>
		<DerivedField name="double(pixel488)" optype="continuous" dataType="double">
			<FieldRef field="pixel488"/>
		</DerivedField>
		<DerivedField name="double(pixel296)" optype="continuous" dataType="double">
			<FieldRef field="pixel296"/>
		</DerivedField>
		<DerivedField name="double(pixel383)" optype="continuous" dataType="double">
			<FieldRef field="pixel383"/>
		</DerivedField>
		<DerivedField name="double(pixel133)" optype="continuous" dataType="double">
			<FieldRef field="pixel133"/>
		</DerivedField>
		<DerivedField name="double(pixel483)" optype="continuous" dataType="double">
			<FieldRef field="pixel483"/>
		</DerivedField>
		<DerivedField name="double(pixel567)" optype="continuous" dataType="double">
			<FieldRef field="pixel567"/>
		</DerivedField>
		<DerivedField name="double(pixel319)" optype="continuous" dataType="double">
			<FieldRef field="pixel319"/>
		</DerivedField>
		<DerivedField name="double(pixel384)" optype="continuous" dataType="double">
			<FieldRef field="pixel384"/>
		</DerivedField>
		<DerivedField name="double(pixel537)" optype="continuous" dataType="double">
			<FieldRef field="pixel537"/>
		</DerivedField>
		<DerivedField name="double(pixel301)" optype="continuous" dataType="double">
			<FieldRef field="pixel301"/>
		</DerivedField>
		<DerivedField name="double(pixel238)" optype="continuous" dataType="double">
			<FieldRef field="pixel238"/>
		</DerivedField>
		<DerivedField name="double(pixel344)" optype="continuous" dataType="double">
			<FieldRef field="pixel344"/>
		</DerivedField>
		<DerivedField name="double(pixel329)" optype="continuous" dataType="double">
			<FieldRef field="pixel329"/>
		</DerivedField>
		<DerivedField name="double(pixel518)" optype="continuous" dataType="double">
			<FieldRef field="pixel518"/>
		</DerivedField>
		<DerivedField name="double(pixel630)" optype="continuous" dataType="double">
			<FieldRef field="pixel630"/>
		</DerivedField>
		<DerivedField name="double(pixel265)" optype="continuous" dataType="double">
			<FieldRef field="pixel265"/>
		</DerivedField>
		<DerivedField name="double(pixel212)" optype="continuous" dataType="double">
			<FieldRef field="pixel212"/>
		</DerivedField>
		<DerivedField name="double(pixel373)" optype="continuous" dataType="double">
			<FieldRef field="pixel373"/>
		</DerivedField>
		<DerivedField name="double(pixel595)" optype="continuous" dataType="double">
			<FieldRef field="pixel595"/>
		</DerivedField>
		<DerivedField name="double(pixel520)" optype="continuous" dataType="double">
			<FieldRef field="pixel520"/>
		</DerivedField>
		<DerivedField name="double(pixel220)" optype="continuous" dataType="double">
			<FieldRef field="pixel220"/>
		</DerivedField>
		<DerivedField name="double(pixel369)" optype="continuous" dataType="double">
			<FieldRef field="pixel369"/>
		</DerivedField>
		<DerivedField name="double(pixel299)" optype="continuous" dataType="double">
			<FieldRef field="pixel299"/>
		</DerivedField>
		<DerivedField name="double(pixel211)" optype="continuous" dataType="double">
			<FieldRef field="pixel211"/>
		</DerivedField>
		<DerivedField name="double(pixel313)" optype="continuous" dataType="double">
			<FieldRef field="pixel313"/>
		</DerivedField>
		<DerivedField name="double(pixel163)" optype="continuous" dataType="double">
			<FieldRef field="pixel163"/>
		</DerivedField>
		<DerivedField name="double(pixel683)" optype="continuous" dataType="double">
			<FieldRef field="pixel683"/>
		</DerivedField>
		<DerivedField name="double(pixel664)" optype="continuous" dataType="double">
			<FieldRef field="pixel664"/>
		</DerivedField>
		<DerivedField name="double(pixel157)" optype="continuous" dataType="double">
			<FieldRef field="pixel157"/>
		</DerivedField>
		<DerivedField name="double(pixel466)" optype="continuous" dataType="double">
			<FieldRef field="pixel466"/>
		</DerivedField>
		<DerivedField name="double(pixel482)" optype="continuous" dataType="double">
			<FieldRef field="pixel482"/>
		</DerivedField>
		<DerivedField name="double(pixel433)" optype="continuous" dataType="double">
			<FieldRef field="pixel433"/>
		</DerivedField>
		<DerivedField name="double(pixel209)" optype="continuous" dataType="double">
			<FieldRef field="pixel209"/>
		</DerivedField>
		<DerivedField name="double(pixel666)" optype="continuous" dataType="double">
			<FieldRef field="pixel666"/>
		</DerivedField>
		<DerivedField name="double(pixel98)" optype="continuous" dataType="double">
			<FieldRef field="pixel98"/>
		</DerivedField>
		<DerivedField name="double(pixel687)" optype="continuous" dataType="double">
			<FieldRef field="pixel687"/>
		</DerivedField>
		<DerivedField name="double(pixel510)" optype="continuous" dataType="double">
			<FieldRef field="pixel510"/>
		</DerivedField>
		<DerivedField name="double(pixel206)" optype="continuous" dataType="double">
			<FieldRef field="pixel206"/>
		</DerivedField>
		<DerivedField name="double(pixel300)" optype="continuous" dataType="double">
			<FieldRef field="pixel300"/>
		</DerivedField>
		<DerivedField name="double(pixel150)" optype="continuous" dataType="double">
			<FieldRef field="pixel150"/>
		</DerivedField>
		<DerivedField name="double(pixel710)" optype="continuous" dataType="double">
			<FieldRef field="pixel710"/>
		</DerivedField>
		<DerivedField name="double(pixel246)" optype="continuous" dataType="double">
			<FieldRef field="pixel246"/>
		</DerivedField>
		<DerivedField name="double(pixel218)" optype="continuous" dataType="double">
			<FieldRef field="pixel218"/>
		</DerivedField>
		<DerivedField name="double(pixel406)" optype="continuous" dataType="double">
			<FieldRef field="pixel406"/>
		</DerivedField>
		<DerivedField name="double(pixel459)" optype="continuous" dataType="double">
			<FieldRef field="pixel459"/>
		</DerivedField>
		<DerivedField name="double(pixel239)" optype="continuous" dataType="double">
			<FieldRef field="pixel239"/>
		</DerivedField>
		<DerivedField name="double(pixel598)" optype="continuous" dataType="double">
			<FieldRef field="pixel598"/>
		</DerivedField>
		<DerivedField name="double(pixel593)" optype="continuous" dataType="double">
			<FieldRef field="pixel593"/>
		</DerivedField>
		<DerivedField name="double(pixel178)" optype="continuous" dataType="double">
			<FieldRef field="pixel178"/>
		</DerivedField>
		<DerivedField name="double(pixel348)" optype="continuous" dataType="double">
			<FieldRef field="pixel348"/>
		</DerivedField>
		<DerivedField name="double(pixel681)" optype="continuous" dataType="double">
			<FieldRef field="pixel681"/>
		</DerivedField>
		<DerivedField name="double(pixel269)" optype="continuous" dataType="double">
			<FieldRef field="pixel269"/>
		</DerivedField>
		<DerivedField name="double(pixel658)" optype="continuous" dataType="double">
			<FieldRef field="pixel658"/>
		</DerivedField>
		<DerivedField name="double(pixel405)" optype="continuous" dataType="double">
			<FieldRef field="pixel405"/>
		</DerivedField>
		<DerivedField name="double(pixel124)" optype="continuous" dataType="double">
			<FieldRef field="pixel124"/>
		</DerivedField>
		<DerivedField name="double(pixel655)" optype="continuous" dataType="double">
			<FieldRef field="pixel655"/>
		</DerivedField>
		<DerivedField name="double(pixel517)" optype="continuous" dataType="double">
			<FieldRef field="pixel517"/>
		</DerivedField>
		<DerivedField name="double(pixel353)" optype="continuous" dataType="double">
			<FieldRef field="pixel353"/>
		</DerivedField>
		<DerivedField name="double(pixel633)" optype="continuous" dataType="double">
			<FieldRef field="pixel633"/>
		</DerivedField>
		<DerivedField name="double(pixel680)" optype="continuous" dataType="double">
			<FieldRef field="pixel680"/>
		</DerivedField>
		<DerivedField name="double(pixel186)" optype="continuous" dataType="double">
			<FieldRef field="pixel186"/>
		</DerivedField>
		<DerivedField name="double(pixel191)" optype="continuous" dataType="double">
			<FieldRef field="pixel191"/>
		</DerivedField>
		<DerivedField name="double(pixel184)" optype="continuous" dataType="double">
			<FieldRef field="pixel184"/>
		</DerivedField>
		<DerivedField name="double(pixel651)" optype="continuous" dataType="double">
			<FieldRef field="pixel651"/>
		</DerivedField>
		<DerivedField name="double(pixel332)" optype="continuous" dataType="double">
			<FieldRef field="pixel332"/>
		</DerivedField>
		<DerivedField name="double(pixel573)" optype="continuous" dataType="double">
			<FieldRef field="pixel573"/>
		</DerivedField>
		<DerivedField name="double(pixel542)" optype="continuous" dataType="double">
			<FieldRef field="pixel542"/>
		</DerivedField>
		<DerivedField name="double(pixel407)" optype="continuous" dataType="double">
			<FieldRef field="pixel407"/>
		</DerivedField>
		<DerivedField name="double(pixel261)" optype="continuous" dataType="double">
			<FieldRef field="pixel261"/>
		</DerivedField>
		<DerivedField name="double(pixel188)" optype="continuous" dataType="double">
			<FieldRef field="pixel188"/>
		</DerivedField>
		<DerivedField name="double(pixel708)" optype="continuous" dataType="double">
			<FieldRef field="pixel708"/>
		</DerivedField>
		<DerivedField name="double(pixel234)" optype="continuous" dataType="double">
			<FieldRef field="pixel234"/>
		</DerivedField>
		<DerivedField name="double(pixel597)" optype="continuous" dataType="double">
			<FieldRef field="pixel597"/>
		</DerivedField>
		<DerivedField name="double(pixel426)" optype="continuous" dataType="double">
			<FieldRef field="pixel426"/>
		</DerivedField>
		<DerivedField name="double(pixel370)" optype="continuous" dataType="double">
			<FieldRef field="pixel370"/>
		</DerivedField>
		<DerivedField name="double(pixel628)" optype="continuous" dataType="double">
			<FieldRef field="pixel628"/>
		</DerivedField>
		<DerivedField name="double(pixel244)" optype="continuous" dataType="double">
			<FieldRef field="pixel244"/>
		</DerivedField>
		<DerivedField name="double(pixel414)" optype="continuous" dataType="double">
			<FieldRef field="pixel414"/>
		</DerivedField>
		<DerivedField name="double(pixel377)" optype="continuous" dataType="double">
			<FieldRef field="pixel377"/>
		</DerivedField>
		<DerivedField name="double(pixel634)" optype="continuous" dataType="double">
			<FieldRef field="pixel634"/>
		</DerivedField>
		<DerivedField name="double(pixel428)" optype="continuous" dataType="double">
			<FieldRef field="pixel428"/>
		</DerivedField>
		<DerivedField name="double(pixel326)" optype="continuous" dataType="double">
			<FieldRef field="pixel326"/>
		</DerivedField>
		<DerivedField name="double(pixel653)" optype="continuous" dataType="double">
			<FieldRef field="pixel653"/>
		</DerivedField>
		<DerivedField name="double(pixel427)" optype="continuous" dataType="double">
			<FieldRef field="pixel427"/>
		</DerivedField>
		<DerivedField name="double(pixel470)" optype="continuous" dataType="double">
			<FieldRef field="pixel470"/>
		</DerivedField>
		<DerivedField name="double(pixel572)" optype="continuous" dataType="double">
			<FieldRef field="pixel572"/>
		</DerivedField>
		<DerivedField name="double(pixel464)" optype="continuous" dataType="double">
			<FieldRef field="pixel464"/>
		</DerivedField>
		<DerivedField name="double(pixel580)" optype="continuous" dataType="double">
			<FieldRef field="pixel580"/>
		</DerivedField>
		<DerivedField name="double(pixel236)" optype="continuous" dataType="double">
			<FieldRef field="pixel236"/>
		</DerivedField>
		<DerivedField name="double(pixel569)" optype="continuous" dataType="double">
			<FieldRef field="pixel569"/>
		</DerivedField>
		<DerivedField name="double(pixel684)" optype="continuous" dataType="double">
			<FieldRef field="pixel684"/>
		</DerivedField>
		<DerivedField name="double(pixel213)" optype="continuous" dataType="double">
			<FieldRef field="pixel213"/>
		</DerivedField>
		<DerivedField name="double(pixel416)" optype="continuous" dataType="double">
			<FieldRef field="pixel416"/>
		</DerivedField>
		<DerivedField name="double(pixel298)" optype="continuous" dataType="double">
			<FieldRef field="pixel298"/>
		</DerivedField>
		<DerivedField name="double(pixel685)" optype="continuous" dataType="double">
			<FieldRef field="pixel685"/>
		</DerivedField>
		<DerivedField name="double(pixel718)" optype="continuous" dataType="double">
			<FieldRef field="pixel718"/>
		</DerivedField>
		<DerivedField name="double(pixel678)" optype="continuous" dataType="double">
			<FieldRef field="pixel678"/>
		</DerivedField>
		<DerivedField name="double(pixel657)" optype="continuous" dataType="double">
			<FieldRef field="pixel657"/>
		</DerivedField>
		<DerivedField name="double(pixel330)" optype="continuous" dataType="double">
			<FieldRef field="pixel330"/>
		</DerivedField>
		<DerivedField name="double(pixel720)" optype="continuous" dataType="double">
			<FieldRef field="pixel720"/>
		</DerivedField>
		<DerivedField name="double(pixel274)" optype="continuous" dataType="double">
			<FieldRef field="pixel274"/>
		</DerivedField>
		<DerivedField name="double(pixel578)" optype="continuous" dataType="double">
			<FieldRef field="pixel578"/>
		</DerivedField>
		<DerivedField name="double(pixel717)" optype="continuous" dataType="double">
			<FieldRef field="pixel717"/>
		</DerivedField>
		<DerivedField name="double(pixel623)" optype="continuous" dataType="double">
			<FieldRef field="pixel623"/>
		</DerivedField>
		<DerivedField name="double(pixel540)" optype="continuous" dataType="double">
			<FieldRef field="pixel540"/>
		</DerivedField>
		<DerivedField name="double(pixel430)" optype="continuous" dataType="double">
			<FieldRef field="pixel430"/>
		</DerivedField>
		<DerivedField name="double(pixel454)" optype="continuous" dataType="double">
			<FieldRef field="pixel454"/>
		</DerivedField>
		<DerivedField name="double(pixel317)" optype="continuous" dataType="double">
			<FieldRef field="pixel317"/>
		</DerivedField>
		<DerivedField name="double(pixel185)" optype="continuous" dataType="double">
			<FieldRef field="pixel185"/>
		</DerivedField>
		<DerivedField name="double(pixel216)" optype="continuous" dataType="double">
			<FieldRef field="pixel216"/>
		</DerivedField>
		<DerivedField name="double(pixel217)" optype="continuous" dataType="double">
			<FieldRef field="pixel217"/>
		</DerivedField>
		<DerivedField name="double(pixel231)" optype="continuous" dataType="double">
			<FieldRef field="pixel231"/>
		</DerivedField>
		<DerivedField name="double(pixel713)" optype="continuous" dataType="double">
			<FieldRef field="pixel713"/>
		</DerivedField>
		<DerivedField name="double(pixel691)" optype="continuous" dataType="double">
			<FieldRef field="pixel691"/>
		</DerivedField>
		<DerivedField name="double(pixel181)" optype="continuous" dataType="double">
			<FieldRef field="pixel181"/>
		</DerivedField>
		<DerivedField name="double(pixel270)" optype="continuous" dataType="double">
			<FieldRef field="pixel270"/>
		</DerivedField>
		<DerivedField name="double(pixel250)" optype="continuous" dataType="double">
			<FieldRef field="pixel250"/>
		</DerivedField>
		<DerivedField name="double(pixel491)" optype="continuous" dataType="double">
			<FieldRef field="pixel491"/>
		</DerivedField>
		<DerivedField name="double(pixel132)" optype="continuous" dataType="double">
			<FieldRef field="pixel132"/>
		</DerivedField>
		<DerivedField name="double(pixel660)" optype="continuous" dataType="double">
			<FieldRef field="pixel660"/>
		</DerivedField>
		<DerivedField name="double(pixel689)" optype="continuous" dataType="double">
			<FieldRef field="pixel689"/>
		</DerivedField>
		<DerivedField name="double(pixel485)" optype="continuous" dataType="double">
			<FieldRef field="pixel485"/>
		</DerivedField>
		<DerivedField name="double(pixel287)" optype="continuous" dataType="double">
			<FieldRef field="pixel287"/>
		</DerivedField>
		<DerivedField name="double(pixel127)" optype="continuous" dataType="double">
			<FieldRef field="pixel127"/>
		</DerivedField>
		<DerivedField name="double(pixel126)" optype="continuous" dataType="double">
			<FieldRef field="pixel126"/>
		</DerivedField>
		<DerivedField name="double(pixel553)" optype="continuous" dataType="double">
			<FieldRef field="pixel553"/>
		</DerivedField>
		<DerivedField name="double(pixel469)" optype="continuous" dataType="double">
			<FieldRef field="pixel469"/>
		</DerivedField>
		<DerivedField name="double(pixel622)" optype="continuous" dataType="double">
			<FieldRef field="pixel622"/>
		</DerivedField>
		<DerivedField name="double(pixel441)" optype="continuous" dataType="double">
			<FieldRef field="pixel441"/>
		</DerivedField>
		<DerivedField name="double(pixel554)" optype="continuous" dataType="double">
			<FieldRef field="pixel554"/>
		</DerivedField>
		<DerivedField name="double(pixel70)" optype="continuous" dataType="double">
			<FieldRef field="pixel70"/>
		</DerivedField>
		<DerivedField name="double(pixel609)" optype="continuous" dataType="double">
			<FieldRef field="pixel609"/>
		</DerivedField>
		<DerivedField name="double(pixel131)" optype="continuous" dataType="double">
			<FieldRef field="pixel131"/>
		</DerivedField>
		<DerivedField name="double(pixel413)" optype="continuous" dataType="double">
			<FieldRef field="pixel413"/>
		</DerivedField>
		<DerivedField name="double(pixel629)" optype="continuous" dataType="double">
			<FieldRef field="pixel629"/>
		</DerivedField>
		<DerivedField name="double(pixel275)" optype="continuous" dataType="double">
			<FieldRef field="pixel275"/>
		</DerivedField>
		<DerivedField name="double(pixel526)" optype="continuous" dataType="double">
			<FieldRef field="pixel526"/>
		</DerivedField>
		<DerivedField name="double(pixel374)" optype="continuous" dataType="double">
			<FieldRef field="pixel374"/>
		</DerivedField>
		<DerivedField name="double(pixel322)" optype="continuous" dataType="double">
			<FieldRef field="pixel322"/>
		</DerivedField>
		<DerivedField name="double(pixel522)" optype="continuous" dataType="double">
			<FieldRef field="pixel522"/>
		</DerivedField>
		<DerivedField name="double(pixel46)" optype="continuous" dataType="double">
			<FieldRef field="pixel46"/>
		</DerivedField>
		<DerivedField name="double(pixel581)" optype="continuous" dataType="double">
			<FieldRef field="pixel581"/>
		</DerivedField>
		<DerivedField name="double(pixel435)" optype="continuous" dataType="double">
			<FieldRef field="pixel435"/>
		</DerivedField>
		<DerivedField name="double(pixel638)" optype="continuous" dataType="double">
			<FieldRef field="pixel638"/>
		</DerivedField>
		<DerivedField name="double(pixel530)" optype="continuous" dataType="double">
			<FieldRef field="pixel530"/>
		</DerivedField>
		<DerivedField name="double(pixel258)" optype="continuous" dataType="double">
			<FieldRef field="pixel258"/>
		</DerivedField>
		<DerivedField name="double(pixel359)" optype="continuous" dataType="double">
			<FieldRef field="pixel359"/>
		</DerivedField>
		<DerivedField name="double(pixel248)" optype="continuous" dataType="double">
			<FieldRef field="pixel248"/>
		</DerivedField>
		<DerivedField name="double(pixel714)" optype="continuous" dataType="double">
			<FieldRef field="pixel714"/>
		</DerivedField>
		<DerivedField name="double(pixel605)" optype="continuous" dataType="double">
			<FieldRef field="pixel605"/>
		</DerivedField>
		<DerivedField name="double(pixel565)" optype="continuous" dataType="double">
			<FieldRef field="pixel565"/>
		</DerivedField>
		<DerivedField name="double(pixel712)" optype="continuous" dataType="double">
			<FieldRef field="pixel712"/>
		</DerivedField>
		<DerivedField name="double(pixel190)" optype="continuous" dataType="double">
			<FieldRef field="pixel190"/>
		</DerivedField>
		<DerivedField name="double(pixel438)" optype="continuous" dataType="double">
			<FieldRef field="pixel438"/>
		</DerivedField>
		<DerivedField name="double(pixel583)" optype="continuous" dataType="double">
			<FieldRef field="pixel583"/>
		</DerivedField>
		<DerivedField name="double(pixel306)" optype="continuous" dataType="double">
			<FieldRef field="pixel306"/>
		</DerivedField>
		<DerivedField name="double(pixel162)" optype="continuous" dataType="double">
			<FieldRef field="pixel162"/>
		</DerivedField>
		<DerivedField name="double(pixel174)" optype="continuous" dataType="double">
			<FieldRef field="pixel174"/>
		</DerivedField>
		<DerivedField name="double(pixel620)" optype="continuous" dataType="double">
			<FieldRef field="pixel620"/>
		</DerivedField>
		<DerivedField name="double(pixel122)" optype="continuous" dataType="double">
			<FieldRef field="pixel122"/>
		</DerivedField>
		<DerivedField name="double(pixel201)" optype="continuous" dataType="double">
			<FieldRef field="pixel201"/>
		</DerivedField>
		<DerivedField name="double(pixel129)" optype="continuous" dataType="double">
			<FieldRef field="pixel129"/>
		</DerivedField>
		<DerivedField name="double(pixel399)" optype="continuous" dataType="double">
			<FieldRef field="pixel399"/>
		</DerivedField>
		<DerivedField name="double(pixel154)" optype="continuous" dataType="double">
			<FieldRef field="pixel154"/>
		</DerivedField>
		<DerivedField name="double(pixel303)" optype="continuous" dataType="double">
			<FieldRef field="pixel303"/>
		</DerivedField>
		<DerivedField name="double(pixel92)" optype="continuous" dataType="double">
			<FieldRef field="pixel92"/>
		</DerivedField>
		<DerivedField name="double(pixel649)" optype="continuous" dataType="double">
			<FieldRef field="pixel649"/>
		</DerivedField>
		<DerivedField name="double(pixel256)" optype="continuous" dataType="double">
			<FieldRef field="pixel256"/>
		</DerivedField>
		<DerivedField name="double(pixel397)" optype="continuous" dataType="double">
			<FieldRef field="pixel397"/>
		</DerivedField>
		<DerivedField name="double(pixel443)" optype="continuous" dataType="double">
			<FieldRef field="pixel443"/>
		</DerivedField>
		<DerivedField name="double(pixel436)" optype="continuous" dataType="double">
			<FieldRef field="pixel436"/>
		</DerivedField>
		<DerivedField name="double(pixel328)" optype="continuous" dataType="double">
			<FieldRef field="pixel328"/>
		</DerivedField>
		<DerivedField name="double(pixel146)" optype="continuous" dataType="double">
			<FieldRef field="pixel146"/>
		</DerivedField>
		<DerivedField name="double(pixel259)" optype="continuous" dataType="double">
			<FieldRef field="pixel259"/>
		</DerivedField>
		<DerivedField name="double(pixel499)" optype="continuous" dataType="double">
			<FieldRef field="pixel499"/>
		</DerivedField>
		<DerivedField name="double(pixel737)" optype="continuous" dataType="double">
			<FieldRef field="pixel737"/>
		</DerivedField>
		<DerivedField name="double(pixel458)" optype="continuous" dataType="double">
			<FieldRef field="pixel458"/>
		</DerivedField>
		<DerivedField name="double(pixel93)" optype="continuous" dataType="double">
			<FieldRef field="pixel93"/>
		</DerivedField>
		<DerivedField name="double(pixel91)" optype="continuous" dataType="double">
			<FieldRef field="pixel91"/>
		</DerivedField>
		<DerivedField name="double(pixel743)" optype="continuous" dataType="double">
			<FieldRef field="pixel743"/>
		</DerivedField>
		<DerivedField name="double(pixel745)" optype="continuous" dataType="double">
			<FieldRef field="pixel745"/>
		</DerivedField>
		<DerivedField name="double(pixel479)" optype="continuous" dataType="double">
			<FieldRef field="pixel479"/>
		</DerivedField>
		<DerivedField name="double(pixel390)" optype="continuous" dataType="double">
			<FieldRef field="pixel390"/>
		</DerivedField>
		<DerivedField name="double(pixel474)" optype="continuous" dataType="double">
			<FieldRef field="pixel474"/>
		</DerivedField>
		<DerivedField name="double(pixel311)" optype="continuous" dataType="double">
			<FieldRef field="pixel311"/>
		</DerivedField>
		<DerivedField name="double(pixel388)" optype="continuous" dataType="double">
			<FieldRef field="pixel388"/>
		</DerivedField>
		<DerivedField name="double(pixel51)" optype="continuous" dataType="double">
			<FieldRef field="pixel51"/>
		</DerivedField>
		<DerivedField name="double(pixel584)" optype="continuous" dataType="double">
			<FieldRef field="pixel584"/>
		</DerivedField>
		<DerivedField name="double(pixel716)" optype="continuous" dataType="double">
			<FieldRef field="pixel716"/>
		</DerivedField>
		<DerivedField name="double(pixel692)" optype="continuous" dataType="double">
			<FieldRef field="pixel692"/>
		</DerivedField>
		<DerivedField name="double(pixel204)" optype="continuous" dataType="double">
			<FieldRef field="pixel204"/>
		</DerivedField>
		<DerivedField name="double(pixel523)" optype="continuous" dataType="double">
			<FieldRef field="pixel523"/>
		</DerivedField>
		<DerivedField name="double(pixel461)" optype="continuous" dataType="double">
			<FieldRef field="pixel461"/>
		</DerivedField>
		<DerivedField name="double(pixel592)" optype="continuous" dataType="double">
			<FieldRef field="pixel592"/>
		</DerivedField>
		<DerivedField name="double(pixel632)" optype="continuous" dataType="double">
			<FieldRef field="pixel632"/>
		</DerivedField>
		<DerivedField name="double(pixel161)" optype="continuous" dataType="double">
			<FieldRef field="pixel161"/>
		</DerivedField>
		<DerivedField name="double(pixel247)" optype="continuous" dataType="double">
			<FieldRef field="pixel247"/>
		</DerivedField>
		<DerivedField name="double(pixel175)" optype="continuous" dataType="double">
			<FieldRef field="pixel175"/>
		</DerivedField>
		<DerivedField name="double(pixel497)" optype="continuous" dataType="double">
			<FieldRef field="pixel497"/>
		</DerivedField>
		<DerivedField name="double(pixel232)" optype="continuous" dataType="double">
			<FieldRef field="pixel232"/>
		</DerivedField>
		<DerivedField name="double(pixel203)" optype="continuous" dataType="double">
			<FieldRef field="pixel203"/>
		</DerivedField>
		<DerivedField name="double(pixel575)" optype="continuous" dataType="double">
			<FieldRef field="pixel575"/>
		</DerivedField>
		<DerivedField name="double(pixel694)" optype="continuous" dataType="double">
			<FieldRef field="pixel694"/>
		</DerivedField>
		<DerivedField name="double(pixel690)" optype="continuous" dataType="double">
			<FieldRef field="pixel690"/>
		</DerivedField>
		<DerivedField name="double(pixel255)" optype="continuous" dataType="double">
			<FieldRef field="pixel255"/>
		</DerivedField>
		<DerivedField name="double(pixel189)" optype="continuous" dataType="double">
			<FieldRef field="pixel189"/>
		</DerivedField>
		<DerivedField name="double(pixel733)" optype="continuous" dataType="double">
			<FieldRef field="pixel733"/>
		</DerivedField>
		<DerivedField name="double(pixel648)" optype="continuous" dataType="double">
			<FieldRef field="pixel648"/>
		</DerivedField>
		<DerivedField name="double(pixel423)" optype="continuous" dataType="double">
			<FieldRef field="pixel423"/>
		</DerivedField>
		<DerivedField name="double(pixel230)" optype="continuous" dataType="double">
			<FieldRef field="pixel230"/>
		</DerivedField>
		<DerivedField name="double(pixel219)" optype="continuous" dataType="double">
			<FieldRef field="pixel219"/>
		</DerivedField>
		<DerivedField name="double(pixel509)" optype="continuous" dataType="double">
			<FieldRef field="pixel509"/>
		</DerivedField>
		<DerivedField name="double(pixel305)" optype="continuous" dataType="double">
			<FieldRef field="pixel305"/>
		</DerivedField>
		<DerivedField name="double(pixel235)" optype="continuous" dataType="double">
			<FieldRef field="pixel235"/>
		</DerivedField>
		<DerivedField name="double(pixel193)" optype="continuous" dataType="double">
			<FieldRef field="pixel193"/>
		</DerivedField>
		<DerivedField name="double(pixel408)" optype="continuous" dataType="double">
			<FieldRef field="pixel408"/>
		</DerivedField>
		<DerivedField name="double(pixel603)" optype="continuous" dataType="double">
			<FieldRef field="pixel603"/>
		</DerivedField>
		<DerivedField name="double(pixel662)" optype="continuous" dataType="double">
			<FieldRef field="pixel662"/>
		</DerivedField>
		<DerivedField name="double(pixel551)" optype="continuous" dataType="double">
			<FieldRef field="pixel551"/>
		</DerivedField>
		<DerivedField name="double(pixel327)" optype="continuous" dataType="double">
			<FieldRef field="pixel327"/>
		</DerivedField>
		<DerivedField name="double(pixel107)" optype="continuous" dataType="double">
			<FieldRef field="pixel107"/>
		</DerivedField>
		<DerivedField name="double(pixel302)" optype="continuous" dataType="double">
			<FieldRef field="pixel302"/>
		</DerivedField>
		<DerivedField name="double(pixel707)" optype="continuous" dataType="double">
			<FieldRef field="pixel707"/>
		</DerivedField>
		<DerivedField name="double(pixel342)" optype="continuous" dataType="double">
			<FieldRef field="pixel342"/>
		</DerivedField>
		<DerivedField name="double(pixel473)" optype="continuous" dataType="double">
			<FieldRef field="pixel473"/>
		</DerivedField>
		<DerivedField name="double(pixel665)" optype="continuous" dataType="double">
			<FieldRef field="pixel665"/>
		</DerivedField>
		<DerivedField name="double(pixel695)" optype="continuous" dataType="double">
			<FieldRef field="pixel695"/>
		</DerivedField>
		<DerivedField name="double(pixel562)" optype="continuous" dataType="double">
			<FieldRef field="pixel562"/>
		</DerivedField>
		<DerivedField name="double(pixel228)" optype="continuous" dataType="double">
			<FieldRef field="pixel228"/>
		</DerivedField>
		<DerivedField name="double(pixel343)" optype="continuous" dataType="double">
			<FieldRef field="pixel343"/>
		</DerivedField>
		<DerivedField name="double(pixel742)" optype="continuous" dataType="double">
			<FieldRef field="pixel742"/>
		</DerivedField>
		<DerivedField name="double(pixel286)" optype="continuous" dataType="double">
			<FieldRef field="pixel286"/>
		</DerivedField>
		<DerivedField name="double(pixel528)" optype="continuous" dataType="double">
			<FieldRef field="pixel528"/>
		</DerivedField>
		<DerivedField name="double(pixel221)" optype="continuous" dataType="double">
			<FieldRef field="pixel221"/>
		</DerivedField>
		<DerivedField name="double(pixel747)" optype="continuous" dataType="double">
			<FieldRef field="pixel747"/>
		</DerivedField>
		<DerivedField name="double(pixel331)" optype="continuous" dataType="double">
			<FieldRef field="pixel331"/>
		</DerivedField>
		<DerivedField name="double(pixel368)" optype="continuous" dataType="double">
			<FieldRef field="pixel368"/>
		</DerivedField>
		<DerivedField name="double(pixel371)" optype="continuous" dataType="double">
			<FieldRef field="pixel371"/>
		</DerivedField>
		<DerivedField name="double(pixel496)" optype="continuous" dataType="double">
			<FieldRef field="pixel496"/>
		</DerivedField>
		<DerivedField name="double(pixel514)" optype="continuous" dataType="double">
			<FieldRef field="pixel514"/>
		</DerivedField>
		<DerivedField name="double(pixel555)" optype="continuous" dataType="double">
			<FieldRef field="pixel555"/>
		</DerivedField>
		<DerivedField name="double(pixel498)" optype="continuous" dataType="double">
			<FieldRef field="pixel498"/>
		</DerivedField>
		<DerivedField name="double(pixel148)" optype="continuous" dataType="double">
			<FieldRef field="pixel148"/>
		</DerivedField>
		<DerivedField name="double(pixel412)" optype="continuous" dataType="double">
			<FieldRef field="pixel412"/>
		</DerivedField>
		<DerivedField name="double(pixel400)" optype="continuous" dataType="double">
			<FieldRef field="pixel400"/>
		</DerivedField>
		<DerivedField name="double(pixel200)" optype="continuous" dataType="double">
			<FieldRef field="pixel200"/>
		</DerivedField>
		<DerivedField name="double(pixel172)" optype="continuous" dataType="double">
			<FieldRef field="pixel172"/>
		</DerivedField>
		<DerivedField name="double(pixel119)" optype="continuous" dataType="double">
			<FieldRef field="pixel119"/>
		</DerivedField>
		<DerivedField name="double(pixel165)" optype="continuous" dataType="double">
			<FieldRef field="pixel165"/>
		</DerivedField>
		<DerivedField name="double(pixel245)" optype="continuous" dataType="double">
			<FieldRef field="pixel245"/>
		</DerivedField>
		<DerivedField name="double(pixel563)" optype="continuous" dataType="double">
			<FieldRef field="pixel563"/>
		</DerivedField>
		<DerivedField name="double(pixel135)" optype="continuous" dataType="double">
			<FieldRef field="pixel135"/>
		</DerivedField>
		<DerivedField name="double(pixel334)" optype="continuous" dataType="double">
			<FieldRef field="pixel334"/>
		</DerivedField>
		<DerivedField name="double(pixel100)" optype="continuous" dataType="double">
			<FieldRef field="pixel100"/>
		</DerivedField>
		<DerivedField name="double(pixel619)" optype="continuous" dataType="double">
			<FieldRef field="pixel619"/>
		</DerivedField>
		<DerivedField name="double(pixel506)" optype="continuous" dataType="double">
			<FieldRef field="pixel506"/>
		</DerivedField>
		<DerivedField name="double(pixel676)" optype="continuous" dataType="double">
			<FieldRef field="pixel676"/>
		</DerivedField>
		<DerivedField name="double(pixel636)" optype="continuous" dataType="double">
			<FieldRef field="pixel636"/>
		</DerivedField>
		<DerivedField name="double(pixel507)" optype="continuous" dataType="double">
			<FieldRef field="pixel507"/>
		</DerivedField>
		<DerivedField name="double(pixel339)" optype="continuous" dataType="double">
			<FieldRef field="pixel339"/>
		</DerivedField>
		<DerivedField name="double(pixel199)" optype="continuous" dataType="double">
			<FieldRef field="pixel199"/>
		</DerivedField>
		<DerivedField name="double(pixel424)" optype="continuous" dataType="double">
			<FieldRef field="pixel424"/>
		</DerivedField>
		<DerivedField name="double(pixel606)" optype="continuous" dataType="double">
			<FieldRef field="pixel606"/>
		</DerivedField>
		<DerivedField name="double(pixel147)" optype="continuous" dataType="double">
			<FieldRef field="pixel147"/>
		</DerivedField>
		<DerivedField name="double(pixel663)" optype="continuous" dataType="double">
			<FieldRef field="pixel663"/>
		</DerivedField>
		<DerivedField name="double(pixel415)" optype="continuous" dataType="double">
			<FieldRef field="pixel415"/>
		</DerivedField>
		<DerivedField name="double(pixel677)" optype="continuous" dataType="double">
			<FieldRef field="pixel677"/>
		</DerivedField>
		<DerivedField name="double(pixel611)" optype="continuous" dataType="double">
			<FieldRef field="pixel611"/>
		</DerivedField>
		<DerivedField name="double(pixel283)" optype="continuous" dataType="double">
			<FieldRef field="pixel283"/>
		</DerivedField>
		<DerivedField name="double(pixel647)" optype="continuous" dataType="double">
			<FieldRef field="pixel647"/>
		</DerivedField>
	</TransformationDictionary>
	<TreeModel functionName="classification" missingValueStrategy="nullPrediction" splitCharacteristic="multiSplit">
		<MiningSchema>
			<MiningField name="label" usageType="target"/>
			<MiningField name="pixel409"/>
			<MiningField name="pixel434"/>
			<MiningField name="pixel455"/>
			<MiningField name="pixel323"/>
			<MiningField name="pixel489"/>
			<MiningField name="pixel183"/>
			<MiningField name="pixel570"/>
			<MiningField name="pixel624"/>
			<MiningField name="pixel153"/>
			<MiningField name="pixel608"/>
			<MiningField name="pixel404"/>
			<MiningField name="pixel381"/>
			<MiningField name="pixel654"/>
			<MiningField name="pixel568"/>
			<MiningField name="pixel293"/>
			<MiningField name="pixel376"/>
			<MiningField name="pixel125"/>
			<MiningField name="pixel516"/>
			<MiningField name="pixel594"/>
			<MiningField name="pixel431"/>
			<MiningField name="pixel94"/>
			<MiningField name="pixel233"/>
			<MiningField name="pixel385"/>
			<MiningField name="pixel349"/>
			<MiningField name="pixel627"/>
			<MiningField name="pixel128"/>
			<MiningField name="pixel272"/>
			<MiningField name="pixel513"/>
			<MiningField name="pixel180"/>
			<MiningField name="pixel574"/>
			<MiningField name="pixel177"/>
			<MiningField name="pixel519"/>
			<MiningField name="pixel686"/>
			<MiningField name="pixel719"/>
			<MiningField name="pixel357"/>
			<MiningField name="pixel260"/>
			<MiningField name="pixel512"/>
			<MiningField name="pixel487"/>
			<MiningField name="pixel380"/>
			<MiningField name="pixel546"/>
			<MiningField name="pixel295"/>
			<MiningField name="pixel500"/>
			<MiningField name="pixel106"/>
			<MiningField name="pixel176"/>
			<MiningField name="pixel294"/>
			<MiningField name="pixel661"/>
			<MiningField name="pixel541"/>
			<MiningField name="pixel208"/>
			<MiningField name="pixel271"/>
			<MiningField name="pixel552"/>
			<MiningField name="pixel291"/>
			<MiningField name="pixel318"/>
			<MiningField name="pixel679"/>
			<MiningField name="pixel544"/>
			<MiningField name="pixel437"/>
			<MiningField name="pixel635"/>
			<MiningField name="pixel347"/>
			<MiningField name="pixel187"/>
			<MiningField name="pixel493"/>
			<MiningField name="pixel543"/>
			<MiningField name="pixel439"/>
			<MiningField name="pixel130"/>
			<MiningField name="pixel71"/>
			<MiningField name="pixel378"/>
			<MiningField name="pixel525"/>
			<MiningField name="pixel73"/>
			<MiningField name="pixel241"/>
			<MiningField name="pixel351"/>
			<MiningField name="pixel625"/>
			<MiningField name="pixel242"/>
			<MiningField name="pixel548"/>
			<MiningField name="pixel549"/>
			<MiningField name="pixel682"/>
			<MiningField name="pixel205"/>
			<MiningField name="pixel490"/>
			<MiningField name="pixel263"/>
			<MiningField name="pixel425"/>
			<MiningField name="pixel442"/>
			<MiningField name="pixel156"/>
			<MiningField name="pixel99"/>
			<MiningField name="pixel626"/>
			<MiningField name="pixel97"/>
			<MiningField name="pixel547"/>
			<MiningField name="pixel599"/>
			<MiningField name="pixel262"/>
			<MiningField name="pixel515"/>
			<MiningField name="pixel284"/>
			<MiningField name="pixel486"/>
			<MiningField name="pixel289"/>
			<MiningField name="pixel152"/>
			<MiningField name="pixel207"/>
			<MiningField name="pixel457"/>
			<MiningField name="pixel536"/>
			<MiningField name="pixel320"/>
			<MiningField name="pixel352"/>
			<MiningField name="pixel158"/>
			<MiningField name="pixel104"/>
			<MiningField name="pixel340"/>
			<MiningField name="pixel659"/>
			<MiningField name="pixel386"/>
			<MiningField name="pixel101"/>
			<MiningField name="pixel160"/>
			<MiningField name="pixel215"/>
			<MiningField name="pixel182"/>
			<MiningField name="pixel350"/>
			<MiningField name="pixel524"/>
			<MiningField name="pixel237"/>
			<MiningField name="pixel290"/>
			<MiningField name="pixel315"/>
			<MiningField name="pixel462"/>
			<MiningField name="pixel316"/>
			<MiningField name="pixel276"/>
			<MiningField name="pixel314"/>
			<MiningField name="pixel264"/>
			<MiningField name="pixel550"/>
			<MiningField name="pixel321"/>
			<MiningField name="pixel527"/>
			<MiningField name="pixel240"/>
			<MiningField name="pixel325"/>
			<MiningField name="pixel571"/>
			<MiningField name="pixel494"/>
			<MiningField name="pixel356"/>
			<MiningField name="pixel379"/>
			<MiningField name="pixel607"/>
			<MiningField name="pixel179"/>
			<MiningField name="pixel468"/>
			<MiningField name="pixel268"/>
			<MiningField name="pixel266"/>
			<MiningField name="pixel345"/>
			<MiningField name="pixel210"/>
			<MiningField name="pixel411"/>
			<MiningField name="pixel521"/>
			<MiningField name="pixel456"/>
			<MiningField name="pixel324"/>
			<MiningField name="pixel155"/>
			<MiningField name="pixel288"/>
			<MiningField name="pixel511"/>
			<MiningField name="pixel577"/>
			<MiningField name="pixel631"/>
			<MiningField name="pixel121"/>
			<MiningField name="pixel346"/>
			<MiningField name="pixel582"/>
			<MiningField name="pixel292"/>
			<MiningField name="pixel576"/>
			<MiningField name="pixel273"/>
			<MiningField name="pixel151"/>
			<MiningField name="pixel382"/>
			<MiningField name="pixel484"/>
			<MiningField name="pixel460"/>
			<MiningField name="pixel566"/>
			<MiningField name="pixel492"/>
			<MiningField name="pixel432"/>
			<MiningField name="pixel471"/>
			<MiningField name="pixel159"/>
			<MiningField name="pixel123"/>
			<MiningField name="pixel465"/>
			<MiningField name="pixel387"/>
			<MiningField name="pixel600"/>
			<MiningField name="pixel604"/>
			<MiningField name="pixel596"/>
